{"learner":{"attributes":{"best_iteration":"599","best_ntree_limit":"600","scikit_learn":"{\"use_label_encoder\": true, \"n_estimators\": 600, \"objective\": \"binary:logistic\", \"max_depth\": 7, \"learning_rate\": 0.02, \"verbosity\": null, \"booster\": null, \"tree_method\": null, \"gamma\": 1.5, \"min_child_weight\": 3, \"max_delta_step\": null, \"subsample\": 0.6, \"colsample_bytree\": 0.8, \"colsample_bylevel\": null, \"colsample_bynode\": null, \"reg_alpha\": null, \"reg_lambda\": null, \"scale_pos_weight\": null, \"base_score\": null, \"missing\": NaN, \"num_parallel_tree\": null, \"random_state\": null, \"n_jobs\": null, \"monotone_constraints\": null, \"interaction_constraints\": null, \"importance_type\": null, \"gpu_id\": null, \"validate_parameters\": null, \"predictor\": null, \"enable_categorical\": false, \"kwargs\": {\"silent\": true, \"nthread\": 1}, \"classes_\": [0, 1], \"n_classes_\": 2, \"_le\": {\"classes_\": [0, 1]}, \"_estimator_type\": \"classifier\"}"},"feature_names":[],"feature_types":[],"gradient_booster":{"model":{"gbtree_model_param":{"num_trees":"600","size_leaf_vector":"0"},"tree_info":[0,0,0,0,0,0,0,0,0,0,0,0,0,0,0,0,0,0,0,0,0,0,0,0,0,0,0,0,0,0,0,0,0,0,0,0,0,0,0,0,0,0,0,0,0,0,0,0,0,0,0,0,0,0,0,0,0,0,0,0,0,0,0,0,0,0,0,0,0,0,0,0,0,0,0,0,0,0,0,0,0,0,0,0,0,0,0,0,0,0,0,0,0,0,0,0,0,0,0,0,0,0,0,0,0,0,0,0,0,0,0,0,0,0,0,0,0,0,0,0,0,0,0,0,0,0,0,0,0,0,0,0,0,0,0,0,0,0,0,0,0,0,0,0,0,0,0,0,0,0,0,0,0,0,0,0,0,0,0,0,0,0,0,0,0,0,0,0,0,0,0,0,0,0,0,0,0,0,0,0,0,0,0,0,0,0,0,0,0,0,0,0,0,0,0,0,0,0,0,0,0,0,0,0,0,0,0,0,0,0,0,0,0,0,0,0,0,0,0,0,0,0,0,0,0,0,0,0,0,0,0,0,0,0,0,0,0,0,0,0,0,0,0,0,0,0,0,0,0,0,0,0,0,0,0,0,0,0,0,0,0,0,0,0,0,0,0,0,0,0,0,0,0,0,0,0,0,0,0,0,0,0,0,0,0,0,0,0,0,0,0,0,0,0,0,0,0,0,0,0,0,0,0,0,0,0,0,0,0,0,0,0,0,0,0,0,0,0,0,0,0,0,0,0,0,0,0,0,0,0,0,0,0,0,0,0,0,0,0,0,0,0,0,0,0,0,0,0,0,0,0,0,0,0,0,0,0,0,0,0,0,0,0,0,0,0,0,0,0,0,0,0,0,0,0,0,0,0,0,0,0,0,0,0,0,0,0,0,0,0,0,0,0,0,0,0,0,0,0,0,0,0,0,0,0,0,0,0,0,0,0,0,0,0,0,0,0,0,0,0,0,0,0,0,0,0,0,0,0,0,0,0,0,0,0,0,0,0,0,0,0,0,0,0,0,0,0,0,0,0,0,0,0,0,0,0,0,0,0,0,0,0,0,0,0,0,0,0,0,0,0,0,0,0,0,0,0,0,0,0,0,0,0,0,0,0,0,0,0,0,0,0,0,0,0,0,0,0,0,0,0,0,0,0,0,0,0,0,0,0,0,0,0,0,0,0,0,0,0,0,0,0,0,0,0,0,0,0,0,0,0,0,0,0,0,0,0,0,0,0,0,0,0,0,0,0,0,0,0,0,0,0,0,0,0,0,0,0,0,0,0,0,0,0,0,0,0,0,0,0,0,0,0,0,0,0,0,0,0,0,0,0,0,0,0,0,0,0,0,0,0,0,0,0,0,0,0,0,0,0],"trees":[{"base_weights":[-1.2653325E-2,-9.1398734E-1,7.8540146E-1,-1.0208989E0,1.6E0,1.1653655E0,-4.3209877E-2,-4.4698855E-1,-1.7930107E0,1.9101124E0,1.0769231E0,8.9836067E-1,1.9883552E0,-1.1990232E0,1.9251559E0,-8.059361E-1,1.9693487E0,-1.8725399E0,-1.5764706E0,2.857143E-1,1.5121951E0,1.2563719E0,3.0062112E-1,-1.6363636E0,-7.106599E-1,-3.011236E-1,-1.3210162E0,-5E-1,-1.6029055E0,1E0,-5E-1,7.5E-1,1.7241379E0,7.5220126E-1,1.985267E0,-3.8016528E-1,5.8906525E-1,-1.1919192E0,-1.748503E0,-1.1111112E0,-2.1978022E-1,-8.404993E-1,1.9537572E0,-1.5452197E0,-1.1304348E0,-1.3464053E0,-1.7272727E0,8.49534E-1,-8.333333E-1,1.5294118E0,-5.152838E-1,7.089552E-1,-1.3142858E0,-1.5609756E0,4.7619048E-1,2.2222222E-1,-1.2079208E0,-2.5E-2,-1.3846154E0,-1.0930787E0,-4.8366013E-1,-1.6011081E0,-6.666667E-1,-5.5813956E-1,-1.2418953E0,-1.4326241E0,-2.5E-1,3.4042552E-1,1.1458774E0,-1.4285715E-1,-1.5E0,-9.756097E-2,-7.284768E-1,1.7054264E-1,8.7104625E-1,-3.6363637E-1,-1.2826087E0,-6.909091E-1,3.119266E-1],"categories":[],"categories_nodes":[],"categories_segments":[],"categories_sizes":[],"default_left":[true,true,true,true,true,true,true,true,true,false,true,true,false,true,false,true,false,false,true,true,true,true,true,true,true,true,true,false,true,false,false,true,true,true,false,true,true,true,false,true,true,true,false,true,true,true,false,true,true,false,true,true,false,false,false,false,true,true,false,false,false,false,false,false,false,false,false,false,false,false,false,false,false,false,false,false,false,false,false],"id":0,"left_children":[1,3,5,7,9,11,13,15,17,-1,19,21,-1,23,-1,25,-1,-1,27,29,-1,33,35,37,39,41,43,-1,45,-1,-1,-1,-1,47,-1,49,51,53,-1,55,57,59,-1,61,63,65,-1,67,69,-1,71,73,-1,-1,-1,-1,75,77,-1,-1,-1,-1,-1,-1,-1,-1,-1,-1,-1,-1,-1,-1,-1,-1,-1,-1,-1,-1,-1],"loss_changes":[1.3934894E3,2.4615094E2,3.2355103E2,3.861557E2,4.0259323E0,1.5302216E2,7.394289E2,4.3720782E2,3.4542236E0,0E0,5.164299E0,1.13843414E2,0E0,4.256781E1,0E0,1.1349051E2,0E0,0E0,2.222046E0,4.428571E0,3.626995E-1,1.2106378E2,3.974317E1,3.2612305E0,1.911827E1,2.7225284E2,7.504059E0,0E0,9.680786E-1,0E0,0E0,0E0,0E0,3.1379913E1,0E0,1.6398247E1,3.3278084E1,1.5980076E1,0E0,7.2387238E0,1.0288735E1,1.57173E1,0E0,3.6831055E0,7.0092926E0,3.2576523E0,0E0,2.7935928E1,5.3095245E0,0E0,5.027362E0,1.1545876E1,0E0,0E0,0E0,0E0,2.7180176E0,9.190013E0,0E0,0E0,0E0,0E0,0E0,0E0,0E0,0E0,0E0,0E0,0E0,0E0,0E0,0E0,0E0,0E0,0E0,0E0,0E0,0E0,0E0],"parents":[2147483647,0,0,1,1,2,2,3,3,4,4,5,5,6,6,7,7,8,8,10,10,11,11,13,13,15,15,18,18,19,19,20,20,21,21,22,22,23,23,24,24,25,25,26,26,28,28,33,33,35,35,36,36,37,37,39,39,40,40,41,41,43,43,44,44,45,45,47,47,48,48,50,50,51,51,56,56,57,57],"right_children":[2,4,6,8,10,12,14,16,18,-1,20,22,-1,24,-1,26,-1,-1,28,30,-1,34,36,38,40,42,44,-1,46,-1,-1,-1,-1,48,-1,50,52,54,-1,56,58,60,-1,62,64,66,-1,68,70,-1,72,74,-1,-1,-1,-1,76,78,-1,-1,-1,-1,-1,-1,-1,-1,-1,-1,-1,-1,-1,-1,-1,-1,-1,-1,-1,-1,-1],"split_conditions":[3.900149E1,2.011789E0,1.9999735E0,1.9993443E0,2.989983E0,1.0001003E0,2.0005922E0,1.0003681E0,1.08133875E5,3.820225E-2,2.319408E4,9.984622E-1,3.97671E-2,1.6781975E4,3.8503118E-2,9.992903E-1,3.9386973E-2,-3.7450798E-2,5E-1,6.895E2,3.0243902E-2,4.5744746E-4,4.3016888E1,4.69164E4,4.5108253E1,1.3970355E-4,3.2056038E1,-1E-2,6.238834E2,2E-2,-1E-2,1.5E-2,3.448276E-2,6.3957092E1,3.970534E-2,3.9866432E1,6.65E1,4.252747E4,-3.497006E-2,7.145997E4,6.45E1,3.4008354E1,3.9075144E-2,7.975166E2,5.309722E4,6.145E2,-3.4545455E-2,4.4016045E1,6.85E1,3.0588236E-2,9.609926E-1,3.0475212E-3,-2.6285715E-2,-3.121951E-2,9.523809E-3,4.4444446E-3,2.5554734E4,7.660703E4,-2.7692309E-2,-2.1861574E-2,-9.673202E-3,-3.202216E-2,-1.3333334E-2,-1.1162791E-2,-2.4837906E-2,-2.8652482E-2,-5E-3,6.80851E-3,2.2917546E-2,-2.8571428E-3,-3E-2,-1.9512194E-3,-1.4569536E-2,3.4108527E-3,1.7420925E-2,-7.2727273E-3,-2.5652174E-2,-1.3818181E-2,6.238532E-3],"split_indices":[3,6,6,6,6,6,6,6,5,0,5,2,0,5,0,2,0,0,4,0,4,2,3,9,3,2,3,0,0,0,0,2147483647,2147483647,3,0,3,3,9,0,5,3,3,0,0,5,0,0,3,3,0,7,7,0,0,0,0,9,9,0,0,0,0,0,0,0,0,0,0,0,0,0,0,0,0,0,0,0,0,0],"split_type":[0,0,0,0,0,0,0,0,0,0,0,0,0,0,0,0,0,0,0,0,0,0,0,0,0,0,0,0,0,0,0,0,0,0,0,0,0,0,0,0,0,0,0,0,0,0,0,0,0,0,0,0,0,0,0,0,0,0,0,0,0,0,0,0,0,0,0,0,0,0,0,0,0,0,0,0,0,0,0],"sum_hessian":[1.93525E3,9.0875E2,1.0265E3,8.7225E2,3.65E1,7.035E2,3.23E2,5.0125E2,3.71E2,2.125E1,1.525E1,5.3275E2,1.7075E2,2.0375E2,1.1925E2,4.37E2,6.425E1,2.6575E2,1.0525E2,6E0,9.25E0,3.325E2,2.0025E2,1.0625E2,9.75E1,2.215E2,2.155E2,3E0,1.0225E2,3E0,3E0,3E0,6.25E0,1.9775E2,1.3475E2,5.95E1,1.4075E2,2.375E1,8.25E1,5.3E1,4.45E1,1.7925E2,4.225E1,9.575E1,1.1975E2,3.725E1,6.5E1,1.8675E2,1.1E1,3.25E0,5.625E1,1.33E2,7.75E0,1.95E1,4.25E0,3.5E0,4.95E1,3.9E1,5.5E0,1.0375E2,7.55E1,8.925E1,6.5E0,2.05E1,9.925E1,3.425E1,3E0,6.95E1,1.1725E2,6E0,5E0,1.95E1,3.675E1,3.125E1,1.0175E2,4.5E0,4.5E1,1.275E1,2.625E1],"tree_param":{"num_deleted":"2","num_feature":"10","num_nodes":"79","size_leaf_vector":"0"}},{"base_weights":[-4.801846E-3,5.6154996E-1,-9.6753114E-1,4.5347795E-2,1.9637762E0,-1.1027914E0,1.5347203E0,5.5966836E-1,-8.228412E-1,-6.519454E-1,-1.700846E0,1.0844456E0,1.7201852E0,-2.372813E-1,1.0509043E0,-1.4354708E0,1.7758576E0,-8.989861E-1,1.9042591E0,-1.8214794E0,-1.4197017E0,1.3537853E0,3.0331394E-1,1.8241085E0,7.957521E-1,6.2926507E-1,-6.531898E-1,1.4144014E0,-2.444428E-1,-1.7107762E0,-1.0572007E0,-4.8456964E-1,-1.2941017E0,-1.0912205E0,-1.6607689E0,9.716158E-1,9.198967E-2,-8.060895E-1,1.7431482E0,1.94638E0,1.1976293E0,6.098116E-1,-8.086893E-1,-1.1893494E0,-4.4991323E-1,-7.8773487E-1,1.8643057E0,-1.5168186E0,-1.062765E0,-6.23101E-1,-1.2812157E0,-7.7606946E-1,-1.7195424E0,5.110846E-1,1.8258787E0,-2.2662365E-1,5.5869454E-1,-3.4430838E-1,-1.1626142E0,9.5763034E-1,1.9292309E0,1.11364E0,-1.0322992E-1,-1.0327709E0,6.6393214E-1,-8.3776015E-1,-1.3524958E0,-9.979957E-1,1.0139042E-1,-5.940852E-1,-1.4301122E0,-8.940957E-1,-1.682568E0,-6.1682343E-1,-1.450009E0,-8.815241E-1,1.8394087E-2,-7.08305E-1,-1.5489998E0],"categories":[],"categories_nodes":[],"categories_segments":[],"categories_sizes":[],"default_left":[true,true,true,true,false,true,true,true,true,true,true,true,true,true,true,true,false,true,false,false,true,false,false,true,true,true,true,true,true,false,true,true,true,true,true,true,true,true,false,false,true,true,true,true,true,true,false,true,true,true,true,true,true,false,false,false,false,false,false,false,false,false,false,false,false,false,false,false,false,false,false,false,false,false,false,false,false,false,false],"id":1,"left_children":[1,3,5,7,-1,9,11,13,15,17,19,21,-1,25,27,29,-1,31,-1,-1,33,-1,-1,-1,-1,35,37,39,41,-1,43,45,47,49,-1,53,55,57,-1,-1,59,61,63,65,67,69,-1,71,73,75,77,-1,-1,-1,-1,-1,-1,-1,-1,-1,-1,-1,-1,-1,-1,-1,-1,-1,-1,-1,-1,-1,-1,-1,-1,-1,-1,-1,-1],"loss_changes":[1.0497544E3,8.773373E2,2.4304565E2,3.9655148E2,0E0,1.8146167E2,1.2234497E0,2.1856137E2,5.2856506E2,2.4653514E2,7.263794E0,2.4288921E0,9.0140533E-1,7.7345474E1,1.6287369E2,2.6093079E1,0E0,5.7371582E1,0E0,0E0,5.4516296E0,0E0,0E0,0E0,0E0,1.273802E1,5.443379E1,2.8768677E1,3.73621E1,0E0,8.732071E0,1.25714905E2,7.699524E0,2.9142647E0,1.316803E0,1.5783588E1,4.3268504E0,2.2110794E1,0E0,0E0,3.225235E1,1.1250304E1,1.6028109E1,4.2720184E0,6.8229566E0,1.8461273E1,0E0,7.7580566E0,1.4990974E1,2.3367114E0,3.3127556E0,0E0,0E0,0E0,0E0,0E0,0E0,0E0,0E0,0E0,0E0,0E0,0E0,0E0,0E0,0E0,0E0,0E0,0E0,0E0,0E0,0E0,0E0,0E0,0E0,0E0,0E0,0E0,0E0],"parents":[2147483647,0,0,1,1,2,2,3,3,5,5,6,6,7,7,8,8,9,9,10,10,11,11,12,12,13,13,14,14,15,15,17,17,20,20,25,25,26,26,27,27,28,28,30,30,31,31,32,32,33,33,34,34,35,35,36,36,37,37,40,40,41,41,42,42,43,43,44,44,45,45,47,47,48,48,49,49,50,50],"right_children":[2,4,6,8,-1,10,12,14,16,18,20,22,-1,26,28,30,-1,32,-1,-1,34,-1,-1,-1,-1,36,38,40,42,-1,44,46,48,50,-1,54,56,58,-1,-1,60,62,64,66,68,70,-1,72,74,76,78,-1,-1,-1,-1,-1,-1,-1,-1,-1,-1,-1,-1,-1,-1,-1,-1,-1,-1,-1,-1,-1,-1,-1,-1,-1,-1,-1,-1],"split_conditions":[9.996319E-1,1.1489874E-4,2.0015736E0,1.9991143E0,3.9275523E-2,1.9999735E0,2.2150715E4,2.794071E-4,2.0005922E0,1.003274E0,1.0411675E5,6.9203345E2,3.4403704E-2,4.197216E4,1.9982285E0,1.884345E3,3.5517152E-2,9.898914E-1,3.808518E-2,-3.6429588E-2,9.136958E-1,2.7075704E-2,6.0662786E-3,3.648217E-2,1.5915042E-2,9.972948E-1,1.0088282E0,9.9631804E-1,7.0656086E4,-3.4215525E-2,1.0808814E0,4.5744746E-4,1.43252155E-2,9.0016294E-1,-3.3215377E-2,8.0845095E-3,1.30572086E5,9.5403373E-1,3.486296E-2,3.89276E-2,1.0008885E0,9.0823126E-1,1.7017408E5,6.039534E2,8.992466E4,1.9848397E0,3.7286114E-2,4.0015375E4,1.8031517E0,7.025E2,6.225E2,-1.55213885E-2,-3.4390848E-2,1.0221692E-2,3.6517575E-2,-4.532473E-3,1.1173891E-2,-6.8861675E-3,-2.3252284E-2,1.9152606E-2,3.8584616E-2,2.22728E-2,-2.0645983E-3,-2.0655418E-2,1.3278643E-2,-1.6755203E-2,-2.7049916E-2,-1.9959914E-2,2.0278085E-3,-1.1881704E-2,-2.8602244E-2,-1.7881913E-2,-3.365136E-2,-1.2336468E-2,-2.900018E-2,-1.7630482E-2,3.6788173E-4,-1.41661E-2,-3.0979995E-2],"split_indices":[8,8,6,6,0,6,5,1,6,6,5,0,9,5,1,5,0,2,0,0,2,0,0,2147483647,2147483647,2,6,1,5,0,1,2,1,7,5,2,9,2,0,0,1,2,5,0,9,1,0,5,1,0,0,2147483647,2147483647,0,0,0,0,0,0,0,0,0,0,0,0,0,0,0,0,0,0,0,0,0,0,0,0,0,0],"split_type":[0,0,0,0,0,0,0,0,0,0,0,0,0,0,0,0,0,0,0,0,0,0,0,0,0,0,0,0,0,0,0,0,0,0,0,0,0,0,0,0,0,0,0,0,0,0,0,0,0,0,0,0,0,0,0,0,0,0,0,0,0,0,0,0,0,0,0,0,0,0,0,0,0,0,0,0,0,0,0],"sum_hessian":[1.9232982E3,1.2111959E3,7.121023E2,8.860473E2,3.2514862E2,6.7611395E2,3.598835E1,5.5664355E2,3.2940375E2,3.8669354E2,2.8942044E2,1.2496449E1,2.34919E1,2.1246724E2,3.441763E2,2.6692514E2,6.2478584E1,3.532067E2,3.3486835E1,1.9868839E2,9.073207E1,8.747234E0,3.7492154E0,2.0242998E1,3.2489023E0,6.873815E1,1.437291E2,2.6868628E2,7.5490005E1,1.5244957E2,1.1447557E2,1.7347943E2,1.7972726E2,4.0742462E1,4.9989605E1,4.1491467E1,2.7246685E1,1.3573224E2,7.9968567E0,7.547783E1,1.9320847E2,2.9996037E1,4.549397E1,9.322983E1,2.124574E1,1.5423697E2,1.924246E1,8.87385E1,9.098876E1,1.2997686E1,2.7744774E1,3.9989607E0,4.5990646E1,2.7996756E1,1.3494711E1,1.649808E1,1.0748606E1,5.9993126E1,7.5739105E1,1.4722186E2,4.5986595E1,1.7247383E1,1.2748654E1,3.9744873E1,5.7490964E0,3.1493862E1,6.173597E1,1.02476845E1,1.0998055E1,1.1998991E2,3.4247066E1,1.9998413E1,6.874009E1,4.349442E1,4.7494343E1,8.99851E0,3.999176E0,9.998514E0,1.774626E1],"tree_param":{"num_deleted":"4","num_feature":"10","num_nodes":"79","size_leaf_vector":"0"}},{"base_weights":[1.2925975E-2,5.864418E-1,-9.4989693E-1,6.046156E-2,1.9270595E0,-1.069399E0,1.3326635E0,5.642238E-1,-7.6872927E-1,-6.1644983E-1,-1.6469809E0,6.674804E-1,1.6760088E0,-2.5587082E-1,1.0369529E0,-1.3895241E0,1.7483383E0,-8.544718E-1,1.8685035E0,-1.8291646E0,-1.4065982E0,1.2464825E0,-1.9231975E-1,1.7845829E0,7.704737E-1,6.3991195E-1,-7.1712506E-1,1.3492018E0,-1.5241449E-1,-1.6280646E0,-1.0622784E0,-4.20923E-1,-1.2458476E0,-1.1581637E0,-1.5829642E0,1.0328668E0,-7.696085E-2,-8.713152E-1,1.6941687E0,1.911333E0,1.1155273E0,6.837171E-1,-7.5379014E-1,2.6766285E-1,-1.1287973E0,-7.592675E-1,1.8398874E0,-1.319324E0,-4.5697823E-1,-7.797452E-1,-1.3108417E0,-5.378474E-1,-1.6225159E0,5.940993E-1,1.8022033E0,-2.9944763E-1,9.3462116E-1,-5.0822526E-1,-1.145549E0,8.6718196E-1,1.8934662E0,4.947217E-1,1.5583905E0,-8.968329E-1,6.533018E-1,-1.184237E0,-4.6154132E-1,-5.894176E-1,-1.2321674E0,-1.5440203E0,-1.0904664E0,1.8616442E-1,-7.738833E-1,-1.240559E0,-3.885339E-1,-1.4223716E0,-7.941473E-1,-1.0645353E0,-1.7106005E0],"categories":[],"categories_nodes":[],"categories_segments":[],"categories_sizes":[],"default_left":[true,true,true,true,false,true,true,true,true,true,true,true,true,true,true,true,false,true,false,false,true,false,false,true,true,true,true,true,true,false,true,true,true,true,true,true,true,true,false,false,true,true,true,false,true,true,false,true,true,true,true,false,true,false,false,false,false,false,false,false,false,false,false,false,false,false,false,false,false,false,false,false,false,false,false,true,true,false,false],"id":2,"left_children":[1,3,5,7,-1,9,11,13,15,17,19,21,-1,25,27,29,-1,31,-1,-1,33,-1,-1,-1,-1,35,37,39,41,-1,43,45,47,49,51,53,55,57,-1,-1,59,61,63,-1,65,67,-1,69,71,73,-1,-1,77,-1,-1,-1,-1,-1,-1,-1,-1,-1,-1,-1,-1,-1,-1,-1,-1,-1,-1,-1,-1,-1,-1,-1,-1,-1,-1],"loss_changes":[1.0634471E3,8.5092926E2,1.9752765E2,3.6295184E2,0E0,1.7785535E2,7.1516037E0,2.0978712E2,5.156019E2,2.2919615E2,1.0561584E1,7.2042184E0,9.081421E-1,8.244271E1,1.2759854E2,1.8878479E1,0E0,5.9177826E1,0E0,0E0,4.021881E0,0E0,0E0,0E0,0E0,1.9226822E1,5.0348534E1,3.357022E1,3.6833805E1,0E0,1.0403305E1,1.3024356E2,1.0086029E1,2.3986511E0,2.2451477E0,1.3773151E1,5.9057918E0,1.1785484E1,0E0,0E0,3.591397E1,4.3107586E0,9.137529E0,0E0,3.4831543E0,1.10989685E1,0E0,6.96402E0,3.6583655E0,3.0313807E0,1.2169113E0,0E0,1.7266083E0,0E0,0E0,0E0,0E0,0E0,0E0,0E0,0E0,0E0,0E0,0E0,0E0,0E0,0E0,0E0,0E0,0E0,0E0,0E0,0E0,0E0,0E0,0E0,0E0,0E0,0E0],"parents":[2147483647,0,0,1,1,2,2,3,3,5,5,6,6,7,7,8,8,9,9,10,10,11,11,12,12,13,13,14,14,15,15,17,17,20,20,25,25,26,26,27,27,28,28,30,30,31,31,32,32,33,33,34,34,35,35,36,36,37,37,40,40,41,41,42,42,44,44,45,45,47,47,48,48,49,49,50,50,52,52],"right_children":[2,4,6,8,-1,10,12,14,16,18,20,22,-1,26,28,30,-1,32,-1,-1,34,-1,-1,-1,-1,36,38,40,42,-1,44,46,48,50,52,54,56,58,-1,-1,60,62,64,-1,66,68,-1,70,72,74,-1,-1,78,-1,-1,-1,-1,-1,-1,-1,-1,-1,-1,-1,-1,-1,-1,-1,-1,-1,-1,-1,-1,-1,-1,-1,-1,-1,-1],"split_conditions":[9.9989974E-1,1.1489874E-4,2.0015736E0,1.9999509E0,3.854119E-2,1.9999735E0,2.2150715E4,2.9814655E-3,2.0180564E0,1.0034592E0,4.533949E4,9.3081707E-1,3.3520177E-2,4.517223E4,1.9982285E0,6.3780227E4,3.4966767E-2,9.984622E-1,3.7370067E-2,-3.6583293E-2,9.136958E-1,2.492965E-2,-3.8463948E-3,3.5691656E-2,1.5409474E-2,9.972948E-1,1.0088282E0,9.984071E-1,8.259891E4,-3.256129E-2,7.655603E4,4.5744746E-4,1.7810081E5,9.0016294E-1,6.983407E4,6.094145E-3,1.6853848E5,9.7436786E-1,3.3883374E-2,3.8226657E-2,1.0000491E0,1.0036414E0,1.7845822E5,5.353257E-3,1.6457005E5,1.962225E0,3.6797747E-2,2.6944476E-1,8.208059E-1,1.0737381E5,-2.6216833E-2,-1.0756948E-2,1.9447136E0,1.1881986E-2,3.6044065E-2,-5.9889522E-3,1.8692423E-2,-1.0164505E-2,-2.291098E-2,1.7343638E-2,3.7869323E-2,9.894434E-3,3.1167809E-2,-1.7936658E-2,1.3066035E-2,-2.368474E-2,-9.230826E-3,-1.1788351E-2,-2.4643347E-2,-3.0880405E-2,-2.1809326E-2,3.7232884E-3,-1.5477666E-2,-2.4811178E-2,-7.7706776E-3,-2.8447432E-2,-1.5882947E-2,-2.1290705E-2,-3.4212008E-2],"split_indices":[8,8,6,6,0,6,5,1,6,6,5,2,9,5,1,5,0,2,0,0,2,0,0,2147483647,2147483647,2,6,1,5,0,5,2,9,7,5,2,9,2,0,0,1,6,5,0,5,1,0,1,7,5,4,0,4,0,0,0,0,0,0,0,0,0,0,0,0,0,0,0,0,0,0,0,0,0,0,2147483647,2147483647,0,0],"split_type":[0,0,0,0,0,0,0,0,0,0,0,0,0,0,0,0,0,0,0,0,0,0,0,0,0,0,0,0,0,0,0,0,0,0,0,0,0,0,0,0,0,0,0,0,0,0,0,0,0,0,0,0,0,0,0,0,0,0,0,0,0,0,0,0,0,0,0,0,0,0,0,0,0,0,0,0,0,0,0],"sum_hessian":[1.9238484E3,1.20592E3,7.1792834E2,8.668598E2,3.390602E2,6.827166E2,3.5211704E1,5.394467E2,3.274131E2,3.8380093E2,2.9891568E2,1.2989817E1,2.2221888E1,1.9741983E2,3.4202692E2,2.62997E2,6.4416084E1,3.5085074E2,3.29502E1,1.6628242E2,1.3263327E2,7.4937086E0,5.4961085E0,1.897592E1,3.2459686E0,6.697096E1,1.3044887E2,2.7079874E2,7.1228165E1,1.4981598E2,1.1318102E2,1.6744173E2,1.8340903E2,5.8207394E1,7.442587E1,4.2973934E1,2.3997026E1,1.2320892E2,7.239939E0,7.740726E1,1.933915E2,2.974075E1,4.1487415E1,5.2472177E0,1.0793381E2,1.4622273E2,2.121899E1,1.6716647E2,1.6242563E1,1.8488943E1,3.971845E1,3.246214E0,7.117966E1,2.8494938E1,1.4478997E1,2.0247732E1,3.749294E0,5.4243267E1,6.896566E1,1.4819667E2,4.5194828E1,2.5743763E1,3.9969852E0,3.7988224E1,3.4991899E0,9.89386E1,8.995207E0,1.0923539E2,3.698734E1,8.145045E1,8.571602E1,5.4977384E0,1.0744824E1,7.4924273E0,1.0996515E1,3.1225504E1,8.492946E0,1.148871E1,5.969095E1],"tree_param":{"num_deleted":"4","num_feature":"10","num_nodes":"79","size_leaf_vector":"0"}},{"base_weights":[2.5317423E-2,-8.4772784E-1,7.500329E-1,-9.532836E-1,1.5297639E0,1.2790926E0,-3.6052957E-1,-4.2378545E-1,-1.6678758E0,1.6686656E0,8.3946615E-1,9.3756604E-1,1.8878918E0,-5.3830737E-1,1.6254709E0,-7.5456846E-1,1.8651321E0,-1.7197163E0,-1.3682284E0,2.9392064E-1,1.1351665E0,1.3038597E0,9.707393E-2,2.2946853E-2,-1.4551972E0,-2.9885033E-1,-1.3756942E0,-1.5282117E0,-1.1610351E0,8.876008E-1,1.5927337E0,-8.973665E-1,1.7468631E0,-2.253132E-1,1.8112866E0,-7.8246236E-1,-1.4842377E0,-6.3515264E-1,1.8582877E0,-1.6268623E0,-1.0757616E0,-7.546933E-1,-1.5026019E0,6.502233E-1,1.8317736E0,1.6543639E0,9.2717505E-1,-1.164448E0,1.1161035E0,1.1491722E0,1.8317634E0,6.307333E-2,-1.146761E0,-1.4039243E0,-1.769622E0,-1.2258694E0,-1.047044E-1,-1.1731515E0,-3.2753322E-1,-1.4980698E-1,-1.2177007E0,8.1283516E-1,-1.8448731E-1,1.3174686E0,1.7892476E0,3.5423064E-1,1.4309973E0,-1.3483112E0,-3.7069282E-1,1.6254704E0,4.697729E-2,5.7991755E-1,1.516492E0,-5.952322E-1,7.998216E-1,-5.540448E-1,-1.3893905E0,-1.1389266E0,-1.4766958E0],"categories":[],"categories_nodes":[],"categories_segments":[],"categories_sizes":[],"default_left":[true,true,true,true,true,true,true,true,true,false,true,true,false,true,false,true,false,false,true,true,true,true,true,true,true,true,true,false,true,true,true,true,true,true,false,true,true,true,false,false,true,true,false,true,false,true,true,true,true,true,true,true,true,true,true,false,false,false,false,false,false,false,false,false,false,false,false,false,false,false,false,true,true,false,false,false,false,true,true],"id":3,"left_children":[1,3,5,7,9,11,13,15,17,-1,-1,21,-1,23,-1,25,-1,-1,27,-1,-1,29,31,33,-1,37,39,-1,41,43,45,47,-1,51,-1,-1,-1,55,-1,-1,57,59,-1,61,-1,63,65,67,69,-1,-1,73,75,-1,-1,-1,-1,-1,-1,-1,-1,-1,-1,-1,-1,-1,-1,-1,-1,-1,-1,-1,-1,-1,-1,-1,-1,-1,-1],"loss_changes":[1.2065073E3,2.1852307E2,6.1265735E2,3.1288733E2,2.1615906E0,1.4501318E2,1.1985318E2,3.6285577E2,3.1212158E0,0E0,9.949708E-1,1.3971799E2,0E0,1.5958725E2,0E0,1.1785704E2,0E0,0E0,1.107254E-1,0E0,0E0,3.6618164E1,2.2953833E2,8.623141E1,1.1389008E0,1.7694136E2,1.1549591E1,0E0,2.8826828E0,2.8355698E1,6.0730286E0,4.8276825E1,5.639801E-1,4.541508E1,0E0,0E0,7.702637E-2,6.578261E1,0E0,0E0,5.6940765E0,4.0818567E0,0E0,1.4659409E1,0E0,5.2977905E0,4.686775E0,1.0827637E1,5.7730646E0,1.0496082E0,0E0,6.3966724E1,5.0869827E0,9.327698E-2,0E0,0E0,0E0,0E0,0E0,0E0,0E0,0E0,0E0,0E0,0E0,0E0,0E0,0E0,0E0,0E0,0E0,0E0,0E0,0E0,0E0,0E0,0E0,0E0,0E0],"parents":[2147483647,0,0,1,1,2,2,3,3,4,4,5,5,6,6,7,7,8,8,10,10,11,11,13,13,15,15,18,18,21,21,22,22,23,23,24,24,25,25,26,26,28,28,29,29,30,30,31,31,32,32,33,33,36,36,37,37,40,40,41,41,43,43,45,45,46,46,47,47,48,48,49,49,51,51,52,52,53,53],"right_children":[2,4,6,8,10,12,14,16,18,-1,-1,22,-1,24,-1,26,-1,-1,28,-1,-1,30,32,34,-1,38,40,-1,42,44,46,48,-1,52,-1,-1,-1,56,-1,-1,58,60,-1,62,-1,64,66,68,70,-1,-1,74,76,-1,-1,-1,-1,-1,-1,-1,-1,-1,-1,-1,-1,-1,-1,-1,-1,-1,-1,-1,-1,-1,-1,-1,-1,-1,-1],"split_conditions":[3.900677E1,2.011789E0,9.9989974E-1,1.9999509E0,9.882109E-1,1.094587E-3,2.0636017E0,1.0048769E0,3.7093742E1,3.337331E-2,1.6789323E-2,1.9991143E0,3.7757836E-2,1.9972429E0,3.2509416E-2,9.959153E-1,3.730264E-2,-3.4394324E-2,7.5036675E-2,5.8784126E-3,2.270333E-2,4.5006096E1,2.0031548E0,1.0034592E0,-2.9103944E-2,6.797864E-4,3.3016747E1,-3.0564234E-2,9.186632E-1,1.0036414E0,1.9969525E0,5.102227E1,3.4937263E-2,1.962225E0,3.6225732E-2,-1.5649246E-2,-2.9684752E-2,2.794071E-4,3.7165754E-2,-3.2537244E-2,1.7775139E5,1.9658833E0,-3.0052036E-2,1.9438145E0,3.6635473E-2,6.6754096E-3,6.505E2,4.6255875E1,6.605304E2,2.2983443E-2,3.663527E-2,1.2013798E-2,6.1257874E2,-2.8078487E-2,-3.5392437E-2,-2.4517387E-2,-2.094088E-3,-2.346303E-2,-6.550664E-3,-2.9961395E-3,-2.4354015E-2,1.6256703E-2,-3.6897461E-3,2.6349373E-2,3.5784952E-2,7.0846127E-3,2.8619945E-2,-2.6966223E-2,-7.413856E-3,3.250941E-2,9.3954575E-4,1.15983505E-2,3.032984E-2,-1.1904644E-2,1.5996432E-2,-1.1080896E-2,-2.7787808E-2,-2.2778532E-2,-2.9533915E-2],"split_indices":[3,6,8,6,8,8,6,6,3,0,3,6,0,6,0,8,0,0,1,2147483647,2147483647,3,6,6,4,8,3,0,8,6,1,3,3,1,0,2147483647,2147483647,1,0,0,9,1,0,1,0,1,0,3,0,2147483647,2147483647,1,0,2147483647,2147483647,0,0,0,0,0,0,0,0,0,0,0,0,0,0,0,0,2147483647,2147483647,0,0,0,0,2147483647,2147483647],"split_type":[0,0,0,0,0,0,0,0,0,0,0,0,0,0,0,0,0,0,0,0,0,0,0,0,0,0,0,0,0,0,0,0,0,0,0,0,0,0,0,0,0,0,0,0,0,0,0,0,0,0,0,0,0,0,0,0,0,0,0,0,0,0,0,0,0,0,0,0,0,0,0,0,0,0,0,0,0,0,0],"sum_hessian":[1.9048854E3,8.6394464E2,1.0409407E3,8.2779144E2,3.615321E1,7.049558E2,3.359849E2,4.7638956E2,3.5140192E2,2.8917181E1,7.236028E0,4.5323715E2,2.5171866E2,3.0904913E2,2.6935738E1,4.1682272E2,5.9566822E1,2.9553384E2,5.5868057E1,3.244375E0,3.9916532E0,3.1528287E2,1.3795427E2,1.9230734E2,1.167418E2,2.4127852E2,1.7554422E2,2.7927898E1,2.7940159E1,1.3083139E2,1.8445149E2,8.6357056E1,5.1597214E1,1.6963269E2,2.267466E1,5.9872985E0,1.107545E2,2.0934651E2,3.1932E1,9.3130905E1,8.2413315E1,1.4225924E1,1.3714234E1,1.0589633E2,2.4935057E1,1.6745924E2,1.6992243E1,7.661584E1,9.741219E0,8.22555E0,4.3371662E1,1.2990707E2,3.9725613E1,9.105037E1,1.9704134E1,9.8426254E1,1.1092026E2,7.2419266E1,9.994049E0,6.7417965E0,7.4841275E0,8.865204E1,1.7244291E1,5.0955833E1,1.1650341E2,8.747599E0,8.244644E0,6.1639248E1,1.4976587E1,6.2453537E0,3.4958649E0,4.2374043E0,3.9881454E0,6.870726E1,6.119981E1,1.2492175E1,2.7233438E1,2.320392E1,6.784644E1],"tree_param":{"num_deleted":"12","num_feature":"10","num_nodes":"79","size_leaf_vector":"0"}},{"base_weights":[-1.1352781E-2,-8.729181E-1,7.453326E-1,-9.7223485E-1,1.429865E0,1.2654335E0,-3.71823E-1,-4.6644303E-1,-1.6434472E0,7.10009E-1,1.7213341E0,9.41391E-1,1.8544836E0,-5.421126E-1,1.6508842E0,-7.6502496E-1,1.8301071E0,-1.7716136E0,-1.4564162E0,1.5441755E0,9.114395E-4,4.1841003E-1,1.4955648E0,-1.351349E-2,-1.4044266E0,-3.1517562E-1,-1.3637909E0,-1.5160359E0,-8.0819106E-1,3.7086803E-1,-3.9056095E-1,8.809003E-1,-4.48264E-1,1.1302266E0,1.6599125E0,-2.8153694E-1,1.7837452E0,-1.677399E0,-1.0107309E0,-6.228139E-1,1.823103E0,-1.0863478E0,-1.5919316E0,-1.2939171E0,-1.5967772E0,-4.1573426E-1,-1.384857E0,1.2389802E0,1.9120921E-1,-1.2284604E0,1.6102264E0,3.7996122E-1,1.4124432E0,1.7005799E0,-2.0185804E-2,1.1933289E-1,-7.092443E-1,-4.7443712E-1,-1.376906E0,-1.2325907E0,-7.1171E-2,-1.2116495E0,1.4877654E0,-1.2755729E0,-1.6939635E0,-1.4196261E0,-5.926703E-1,-7.931483E-1,2.6363772E-1,7.960267E-1,1.8418331E0,4.4795147E-1,-8.645682E-1,-1.3751519E0,-9.7638154E-1,6.5411866E-1,-6.133507E-1,1.6425321E0,3.0131742E-1,1.7815975E0,1.3708762E0,-2.3336877E-1,1.7590715E0,-1.0512335E0,-3.928423E-1,-9.549784E-1,-2.148474E-1,-7.513485E-1,-1.476919E0],"categories":[],"categories_nodes":[],"categories_segments":[],"categories_sizes":[],"default_left":[true,true,true,true,true,true,true,true,true,true,false,true,false,true,false,true,false,false,true,false,true,true,true,true,true,true,true,true,true,true,true,true,true,true,true,true,false,false,true,true,false,true,true,true,false,true,false,true,true,true,false,true,true,true,false,true,true,true,true,false,false,false,false,true,true,false,false,false,false,false,false,false,false,true,true,false,false,false,false,true,true,false,false,false,false,false,false,true,true],"id":4,"left_children":[1,3,5,7,9,11,13,15,17,19,-1,21,-1,23,-1,25,-1,-1,27,-1,-1,31,33,35,37,39,41,43,45,-1,-1,47,49,51,53,55,-1,-1,57,59,-1,61,-1,65,-1,67,-1,69,71,-1,-1,75,77,-1,-1,81,83,85,-1,-1,-1,-1,-1,-1,-1,-1,-1,-1,-1,-1,-1,-1,-1,-1,-1,-1,-1,-1,-1,-1,-1,-1,-1,-1,-1,-1,-1,-1,-1],"loss_changes":[1.2456854E3,2.0572699E2,5.915582E2,2.9021582E2,6.613449E0,1.3079333E2,1.1247335E2,3.3752078E2,6.239441E0,7.3717937E0,0E0,1.2978806E2,0E0,1.3651437E2,0E0,1.16601456E2,0E0,0E0,4.773834E0,0E0,1.265562E0,9.374499E1,1.1218292E1,9.0441734E1,1.0537109E1,1.651922E2,1.00494995E1,4.628296E-1,2.8679333E0,0E0,0E0,3.7349564E1,1.331892E2,1.4454315E1,1.0165985E1,2.8090633E1,0E0,0E0,8.99329E0,7.350302E1,0E0,2.9902802E1,1.0661469E0,2.9373627E0,0E0,2.89704E0,0E0,2.5237015E1,1.4806552E1,8.6904144E-1,0E0,6.0438433E0,1.2563988E1,1.4253235E0,0E0,4.966928E1,8.153736E0,2.4714565E0,6.837387E-1,0E0,0E0,0E0,0E0,0E0,0E0,0E0,0E0,0E0,0E0,0E0,0E0,0E0,0E0,0E0,0E0,0E0,0E0,0E0,0E0,0E0,0E0,0E0,0E0,0E0,0E0,0E0,0E0,0E0,0E0],"parents":[2147483647,0,0,1,1,2,2,3,3,4,4,5,5,6,6,7,7,8,8,9,9,11,11,13,13,15,15,18,18,20,20,21,21,22,22,23,23,24,24,25,25,26,26,27,27,28,28,31,31,32,32,33,33,34,34,35,35,38,38,39,39,41,41,42,42,43,43,45,45,47,47,48,48,49,49,51,51,52,52,53,53,55,55,56,56,57,57,58,58],"right_children":[2,4,6,8,10,12,14,16,18,20,-1,22,-1,24,-1,26,-1,-1,28,-1,-1,32,34,36,38,40,42,44,46,-1,-1,48,50,52,54,56,-1,-1,58,60,-1,62,-1,66,-1,68,-1,70,72,-1,-1,76,78,-1,-1,82,84,86,-1,-1,-1,-1,-1,-1,-1,-1,-1,-1,-1,-1,-1,-1,-1,-1,-1,-1,-1,-1,-1,-1,-1,-1,-1,-1,-1,-1,-1,-1,-1],"split_conditions":[3.900677E1,2.011789E0,9.9989974E-1,1.9999509E0,2.319408E4,1.1489874E-4,2.0015736E0,1.0011728E0,5.6354324E4,2.9297004E0,3.442668E-2,4.6012413E1,3.7089672E-2,1.9999735E0,3.3017684E-2,9.983214E-1,3.660214E-2,-3.543227E-2,3.802917E1,3.088351E-2,1.822879E-5,1.9991143E0,4.9004166E1,1.005819E0,4.303197E4,7.097024E-4,9.7273594E-1,9.171481E-1,9.186632E-1,7.4173603E-3,-7.811219E-3,9.994465E-1,2.0031548E0,5.912129E-2,6.85E1,9.984622E-1,3.5674904E-2,-3.354798E-2,9.0016294E-1,2.794071E-4,3.6462057E-2,4.7531728E-2,-3.183863E-2,1.5144733E5,-3.1935543E-2,6.7473584E2,-2.769714E-2,3.735807E-3,1.9321004E0,-2.4569208E-2,3.2204527E-2,1.3434822E5,1.9972401E0,3.40116E-2,-4.0371608E-4,4.5744746E-4,2.6944476E-1,9.983708E-2,-2.753812E-2,-2.4651812E-2,-1.42342E-3,-2.4232991E-2,2.9755307E-2,-2.5511457E-2,-3.387927E-2,-2.8392522E-2,-1.1853406E-2,-1.5862966E-2,5.2727545E-3,1.5920533E-2,3.683666E-2,8.959029E-3,-1.7291363E-2,-2.7503036E-2,-1.952763E-2,1.3082373E-2,-1.2267013E-2,3.285064E-2,6.0263486E-3,3.563195E-2,2.7417524E-2,-4.6673752E-3,3.518143E-2,-2.102467E-2,-7.856846E-3,-1.9099567E-2,-4.2969477E-3,-1.502697E-2,-2.953838E-2],"split_indices":[3,6,8,6,5,8,6,6,5,6,0,3,0,6,0,8,0,0,3,0,0,6,3,6,5,8,2,7,8,2147483647,2147483647,2,6,1,3,2,0,0,2,1,0,2,7,5,0,0,0,2,1,5,0,5,1,6,0,2,1,1,5,0,0,0,0,2147483647,2147483647,0,0,0,0,0,0,0,0,2147483647,2147483647,0,0,0,0,2147483647,2147483647,0,0,0,0,0,0,2147483647,2147483647],"split_type":[0,0,0,0,0,0,0,0,0,0,0,0,0,0,0,0,0,0,0,0,0,0,0,0,0,0,0,0,0,0,0,0,0,0,0,0,0,0,0,0,0,0,0,0,0,0,0,0,0,0,0,0,0,0,0,0,0,0,0,0,0,0,0,0,0,0,0,0,0,0,0,0,0,0,0,0,0,0,0,0,0,0,0,0,0,0,0,0,0],"sum_hessian":[1.9087561E3,8.924523E2,1.0163038E3,8.5610706E2,3.6345222E1,6.933679E2,3.2293582E2,4.8918033E2,3.6692673E2,1.1465145E1,2.488008E1,4.4897842E2,2.4438951E2,2.9853452E2,2.4401318E1,4.3348804E2,5.5692303E1,2.1269868E2,1.5422804E2,4.726883E0,6.7382627E0,2.3189302E2,2.170854E2,1.8570988E2,1.1282462E2,2.4839598E2,1.8509206E2,1.4001189E2,1.421615E1,3.4913933E0,3.246869E0,1.5119382E2,8.0699196E1,6.979997E1,1.4728543E2,1.6234315E2,2.3366726E1,6.470215E1,4.8122475E1,2.1777325E2,3.0622728E1,8.612128E1,9.897078E1,4.1865543E1,9.814635E1,9.483185E0,4.732965E0,9.899849E1,5.219533E1,5.8811893E1,2.18873E1,1.9720325E1,5.0079647E1,1.437927E2,3.4927487E0,8.41729E1,7.8170265E1,2.0457067E1,2.7665407E1,1.0285009E2,1.14923164E2,8.262841E1,3.4928594E0,2.7428398E1,7.154238E1,3.4632683E1,7.232861E0,5.988756E0,3.4944286E0,5.8405083E1,4.0593407E1,4.244849E1,9.746841E0,3.4361046E1,2.4450848E1,1.5722374E1,3.9979513E0,4.109214E1,8.987511E0,1.118936E2,3.1899082E1,6.997847E1,1.4194428E1,3.6450054E1,4.1720215E1,6.2354574E0,1.4221609E1,4.9867826E0,2.2678625E1],"tree_param":{"num_deleted":"10","num_feature":"10","num_nodes":"89","size_leaf_vector":"0"}},{"base_weights":[-7.175222E-3,-8.5075575E-1,7.270381E-1,-3.6452466E-1,-1.340713E0,1.0804515E0,-2.9363774E-2,-8.438212E-1,1.8374033E0,-1.3883235E0,8.0419046E-1,1.371069E0,4.6399444E-1,-1.037639E0,1.7452005E0,-9.3998235E-1,1.40948E0,-1.1249304E0,-1.6848814E0,-9.2604354E-2,1.2834102E0,9.730484E-1,1.8305709E0,2.7453023E-1,1.775512E0,-1.4188805E0,-5.7863617E-1,1.7682517E0,7.0668596E-1,-4.318724E-1,-1.5675099E0,7.219753E-1,1.5328118E0,-1.2506819E0,1.6611965E0,-1.7012663E0,-6.992873E-1,7.1504223E-1,1.8052907E0,3.8596675E-1,-1.2684144E0,-1.2263491E0,-1.5629691E0,-9.602552E-1,-1.7958045E-1,-6.6196734E-1,1.7349837E0,-1.595429E0,-6.350958E-1,-1.5002521E0,-1.0399286E0,8.150534E-1,-8.865694E-1,-2.5344145E-1,7.158308E-1,-6.750467E-1,-1.5641663E0,-1.4323556E0,-9.5523214E-1,1.5399456E-1,-1.0428796E0,-1.6194951E-3,-1.0436926E0,-9.418773E-1,-3.4917682E-1,-1.6540604E0,-1.241376E0,-1.1859843E0,-1.5763928E0,-1.1264155E0,-4.4957057E-1,1.6499424E-1,1.0781358E0,-5.626549E-1,-1.3010303E0,1.4782326E0,-3.8644096E-1,3.3214983E-1,8.74247E-1,-4.3495786E-1,-1.2165148E0,-8.702859E-1,-1.4210043E0,-2.975231E-1,4.3351048E-1,-2.6346976E-1,-1.497854E0],"categories":[],"categories_nodes":[],"categories_segments":[],"categories_sizes":[],"default_left":[true,true,true,true,true,true,true,true,false,true,true,true,true,true,true,true,true,true,true,false,false,true,false,true,false,true,true,false,false,true,true,true,true,true,false,false,false,true,false,true,true,true,false,true,true,true,false,true,false,true,true,true,true,true,true,true,true,false,true,false,true,true,true,false,false,true,true,true,true,false,false,false,false,true,true,false,false,false,false,false,false,false,false,false,false,false,false],"id":5,"left_children":[1,3,5,7,9,11,13,15,-1,17,19,21,23,25,27,29,-1,33,35,-1,-1,37,-1,39,-1,41,43,-1,-1,45,47,-1,-1,49,-1,-1,-1,51,-1,53,-1,57,-1,59,61,63,-1,-1,-1,-1,69,71,-1,75,77,-1,-1,-1,79,-1,81,83,85,-1,-1,-1,-1,-1,-1,-1,-1,-1,-1,-1,-1,-1,-1,-1,-1,-1,-1,-1,-1,-1,-1,-1,-1],"loss_changes":[1.1781089E3,2.103778E2,2.7189514E2,4.718551E2,4.6100464E1,1.23545654E2,5.830059E2,8.077112E1,0E0,3.179425E1,4.501865E0,8.428137E1,5.5072224E1,3.553557E1,1.5767212E0,1.1163751E2,1.9970703E-1,8.3162445E1,2.0541382E0,0E0,0E0,5.3310654E1,0E0,3.4284874E1,0E0,1.212677E0,1.4440456E1,0E0,0E0,9.888223E1,3.0795898E0,0E0,0E0,1.0117035E1,0E0,0E0,0E0,3.2080284E1,0E0,3.9007103E1,1.3084469E0,1.5879745E0,0E0,4.6551437E0,7.4006577E0,1.5249435E1,0E0,1.1018066E0,0E0,5.085602E-1,5.805649E0,3.1423279E1,8.7694836E-1,1.5169512E1,7.1063957E0,0E0,0E0,0E0,2.9855995E0,0E0,1.7378349E0,5.397376E0,2.5177393E0,0E0,0E0,0E0,0E0,0E0,0E0,0E0,0E0,0E0,0E0,0E0,0E0,0E0,0E0,0E0,0E0,0E0,0E0,0E0,0E0,0E0,0E0,0E0,0E0],"parents":[2147483647,0,0,1,1,2,2,3,3,4,4,5,5,6,6,7,7,9,9,10,10,11,11,12,12,13,13,14,14,15,15,16,16,17,17,18,18,21,21,23,23,25,25,26,26,29,29,30,30,33,33,37,37,39,39,40,40,41,41,43,43,44,44,45,45,47,47,49,49,50,50,51,51,52,52,53,53,54,54,58,58,60,60,61,61,62,62],"right_children":[2,4,6,8,10,12,14,16,-1,18,20,22,24,26,28,30,-1,34,36,-1,-1,38,-1,40,-1,42,44,-1,-1,46,48,-1,-1,50,-1,-1,-1,52,-1,54,-1,58,-1,60,62,64,-1,-1,-1,-1,70,72,-1,76,78,-1,-1,-1,80,-1,82,84,86,-1,-1,-1,-1,-1,-1,-1,-1,-1,-1,-1,-1,-1,-1,-1,-1,-1,-1,-1,-1,-1,-1,-1,-1],"split_conditions":[3.900677E1,9.992903E-1,1.9998851E0,1.3970355E-4,2.0590854E0,9.9994576E-1,2.0031548E0,2.0124803E0,3.6748067E-2,1.9905031E0,3.2209026E1,1.1489874E-4,1.0042422E0,3.6634965E4,6.3347298E1,1.9900324E0,2.81896E-2,1.0011728E0,1.8146603E5,-1.8520871E-3,2.5668204E-2,1.0036414E0,3.661142E-2,6.367E1,3.551024E-2,9.6259654E-1,4.5030495E1,3.5365034E-2,1.4133719E-2,1.0066118E0,1.6670519E5,1.4439506E-2,3.0656235E-2,3.2056038E1,3.3223927E-2,-3.4025326E-2,-1.3985746E-2,6.354186E1,3.610581E-2,4.3016888E1,-2.5368286E-2,4.5191593E1,-3.125938E-2,7.073622E4,6.45E1,3.3016747E1,3.4699675E-2,-3.190858E-2,-1.2701916E-2,-3.0005042E-2,1.7260986E5,4.301718E1,-1.7731387E-2,3.99123E1,4.6179047E1,-1.3500934E-2,-3.1283326E-2,-2.8647112E-2,6.2692773E2,3.0798912E-3,7.5E0,1.3186198E5,6.455E2,-1.8837545E-2,-6.9835363E-3,-3.3081207E-2,-2.482752E-2,-2.3719685E-2,-3.1527855E-2,-2.252831E-2,-8.991411E-3,3.2998847E-3,2.1562716E-2,-1.1253098E-2,-2.6020605E-2,2.9564653E-2,-7.7288193E-3,6.6429963E-3,1.748494E-2,-8.699157E-3,-2.4330296E-2,-1.7405719E-2,-2.8420085E-2,-5.950462E-3,8.67021E-3,-5.269395E-3,-2.9957078E-2],"split_indices":[3,2,6,2,6,2,6,6,0,6,3,2,6,5,3,6,7,6,5,0,0,6,0,3,0,2,3,0,0,6,5,2147483647,2147483647,3,0,0,0,3,0,3,3,3,0,5,3,3,0,3,0,0,9,3,4,3,3,2147483647,2147483647,0,0,0,4,9,0,0,0,2147483647,2147483647,2147483647,2147483647,0,0,0,0,2147483647,2147483647,0,0,0,0,0,0,0,0,0,0,0,0],"split_type":[0,0,0,0,0,0,0,0,0,0,0,0,0,0,0,0,0,0,0,0,0,0,0,0,0,0,0,0,0,0,0,0,0,0,0,0,0,0,0,0,0,0,0,0,0,0,0,0,0,0,0,0,0,0,0,0,0,0,0,0,0,0,0,0,0,0,0,0,0,0,0,0,0,0,0,0,0,0,0,0,0,0,0,0,0,0,0],"sum_hessian":[1.9001157E3,8.841293E2,1.01598645E3,4.446274E2,4.395019E2,6.921603E2,3.238262E2,3.656522E2,7.897521E1,4.303032E2,9.1987095E0,4.6956723E2,2.2259302E2,2.0676266E2,1.1706353E2,3.512454E2,1.4406793E1,2.304332E2,1.9986998E2,3.4845695E0,5.71414E0,2.532874E2,2.1627983E2,1.9555247E2,2.7040546E1,1.11806496E2,9.495617E1,1.1383416E2,3.2293715E0,1.9502312E2,1.5622229E2,3.2338471E0,1.1172945E1,2.210091E2,9.42411E0,1.9588736E2,3.9826188E0,1.947664E2,5.8521004E1,1.8307971E2,1.2472768E1,5.192941E1,5.987709E1,4.7819664E1,4.7136505E1,1.7692973E2,1.809338E1,1.5099014E2,5.232139E0,9.83849E1,1.2262419E2,1.8378145E2,1.0984961E1,6.238478E1,1.2069493E2,5.240739E0,7.2320285E0,2.7074131E1,2.4855278E1,3.2415278E0,4.4578136E1,3.9917507E1,7.219E0,9.231114E1,8.46186E1,1.2638836E2,2.4601784E1,2.2420656E1,7.596424E1,1.0616334E2,1.6460857E1,5.3417503E1,1.3036394E2,7.4893503E0,3.4956102E0,3.7282188E0,5.865656E1,3.6175434E1,8.451949E1,9.200218E0,1.5655061E1,3.2874344E1,1.1703791E1,2.3948162E1,1.5969345E1,3.2374213E0,3.9815786E0],"tree_param":{"num_deleted":"10","num_feature":"10","num_nodes":"87","size_leaf_vector":"0"}},{"base_weights":[2.2374127E-2,-8.084325E-1,7.2837454E-1,-9.075865E-1,1.4104749E0,1.0786874E0,-3.622796E-2,-4.0823242E-1,-1.5818014E0,1.7263354E0,9.5373404E-1,1.2474784E0,-1.8875413E-1,-1.0046834E0,1.7323685E0,-6.8597084E-1,1.7723424E0,-1.6420177E0,-1.3664997E0,1.4172878E0,6.132127E-1,5.6210023E-1,1.5764333E0,-4.5202556E-1,1.6537701E0,-1.2328873E0,-6.792239E-1,-1.5891235E-1,-1.2179791E0,-1.1344007E0,-1.5160693E0,1.1452992E0,1.4119881E-1,3.2979527E-1,1.7530178E0,1.6049527E0,-5.675578E-1,1.6500658E-3,-9.051934E-1,-9.75044E-1,-1.4470378E0,-5.069285E-1,-1.3438187E0,-6.35331E-1,1.8031741E0,-1.4649606E0,-9.432012E-1,-1.1980866E0,-5.198961E-1,-1.7076644E0,-1.2510176E0,-2.1824238E-1,4.6780467E-1,7.1966314E-1,-2.0185086E-1,1.8017473E0,1.4935668E0,-2.2602619E-1,1.4746821E0,-1.1840912E0,-5.0743616E-1,-1.1790966E0,1.583775E0,-5.991137E-1,-1.5114968E0,-6.499798E-2,-7.290193E-1,-6.945015E-1,-1.4822453E0,-1.0926249E0,-2.8473666E-1,-1.5085875E0,-9.913674E-1,1.5673354E0,-1.0599065E0,-9.10855E-1,-1.3634739E0,-1.5233353E0,-8.6496794E-1,3.1108993E-1,1.7565422E0,-8.3900326E-1,1.7173854E-1,1.345164E0,1.7962312E0,-6.598103E-2,-9.553353E-1,7.7378154E-2,-7.7543503E-1,-4.8213774E-1,-1.2135494E0,-7.138731E-1,-1.5446337E0,-5.035111E-1,1.5980269E0,-1.1062287E0,-4.2057505E-1],"categories":[],"categories_nodes":[],"categories_segments":[],"categories_sizes":[],"default_left":[true,true,true,true,true,true,true,true,true,false,true,true,true,true,false,true,false,false,true,false,true,true,true,true,false,true,true,true,true,true,true,false,true,true,false,true,false,true,true,true,true,true,true,true,false,true,true,true,true,true,true,true,true,true,true,false,true,true,false,false,true,true,false,false,true,true,true,true,true,false,false,true,true,false,false,true,true,true,true,false,false,false,false,false,false,false,false,false,false,true,true,true,true,false,false,false,false],"id":6,"left_children":[1,3,5,7,9,11,13,15,17,-1,19,21,23,25,-1,27,-1,-1,-1,-1,31,33,35,37,-1,39,41,43,45,-1,-1,-1,-1,53,-1,55,-1,57,59,61,63,65,-1,69,-1,-1,73,-1,-1,-1,-1,-1,-1,79,81,-1,83,85,-1,-1,87,-1,-1,-1,-1,93,95,-1,-1,-1,-1,-1,-1,-1,-1,-1,-1,-1,-1,-1,-1,-1,-1,-1,-1,-1,-1,-1,-1,-1,-1,-1,-1,-1,-1,-1,-1],"loss_changes":[1.112556E3,1.9299622E2,2.746908E2,2.803805E2,3.787262E0,1.5068176E2,5.552376E2,2.9245877E2,2.3563843E0,0E0,1.9142265E0,1.390617E2,4.125977E1,1.4718185E1,0E0,1.1961638E2,0E0,0E0,1.179184E0,0E0,2.8340287E0,5.5544167E1,2.6522583E1,1.5186433E1,0E0,5.3195343E0,9.458721E0,2.0286069E2,1.3039124E1,8.133049E-1,2.9164886E-1,0E0,9.78034E-1,3.5584496E1,0E0,6.3757324E0,0E0,1.3046503E1,3.4984188E0,3.234397E1,2.620926E0,7.0122585E0,5.547848E-1,2.7644691E1,0E0,7.792206E-1,3.1954933E1,3.0127335E-1,0E0,0E0,1.184372E0,0E0,0E0,4.133545E1,1.7548573E1,0E0,9.710144E0,3.8704891E0,0E0,0E0,2.7213736E0,7.267227E-1,0E0,0E0,4.648285E-1,1.9149248E1,5.093029E0,0E0,0E0,0E0,0E0,0E0,0E0,0E0,0E0,0E0,0E0,0E0,0E0,0E0,0E0,0E0,0E0,0E0,0E0,0E0,0E0,0E0,0E0,0E0,0E0,0E0,0E0,0E0,0E0,0E0,0E0],"parents":[2147483647,0,0,1,1,2,2,3,3,4,4,5,5,6,6,7,7,8,8,10,10,11,11,12,12,13,13,15,15,18,18,20,20,21,21,22,22,23,23,25,25,26,26,27,27,28,28,29,29,30,30,32,32,33,33,35,35,37,37,38,38,39,39,40,40,41,41,42,42,43,43,45,45,46,46,47,47,50,50,53,53,54,54,56,56,57,57,60,60,61,61,64,64,65,65,66,66],"right_children":[2,4,6,8,10,12,14,16,18,-1,20,22,24,26,-1,28,-1,-1,-1,-1,32,34,36,38,-1,40,42,44,46,-1,-1,-1,-1,54,-1,56,-1,58,60,62,64,66,-1,70,-1,-1,74,-1,-1,-1,-1,-1,-1,80,82,-1,84,86,-1,-1,88,-1,-1,-1,-1,94,96,-1,-1,-1,-1,-1,-1,-1,-1,-1,-1,-1,-1,-1,-1,-1,-1,-1,-1,-1,-1,-1,-1,-1,-1,-1,-1,-1,-1,-1,-1],"split_conditions":[3.900149E1,2.0124803E0,1.9977341E0,1.9999509E0,2.9979765E0,1.9969525E0,2.0005922E0,1.0003681E0,3.6128204E1,3.4526706E-2,6.065E2,1.084273E-4,1.0036414E0,4.606298E1,3.4647368E-2,9.992903E-1,3.544685E-2,-3.2840353E-2,-2.7329993E-2,2.8345756E-2,7.1987325E-1,1.0055537E0,6.7764145E1,9.7151506E-1,3.30754E-2,9.353663E-1,6.45E1,1.3970355E-4,1.43252155E-2,-2.2688014E-2,-3.0321386E-2,2.2905983E-2,2.823976E-3,9.972948E-1,3.5060354E-2,9.995426E-1,-1.1351156E-2,2.595389E-2,4.65E1,2.5886786E-3,2.3671953E4,9.8150146E-1,-2.6876373E-2,4.0218127E-3,3.606348E-2,-2.929921E-2,9.428022E-1,-2.3961732E-2,-1.0397921E-2,-3.4153286E-2,-2.5020352E-2,-4.3648477E-3,9.356094E-3,4.9597044E-3,4.3042473E1,3.6034945E-2,1.0008885E0,5.65E1,2.9493641E-2,-2.3681823E-2,2.6420627E0,-2.3581931E-2,3.16755E-2,-1.1982274E-2,-3.0229935E-2,4.0906277E-2,2.53393E-1,-1.389003E-2,-2.9644907E-2,-2.1852497E-2,-5.694733E-3,-3.0171748E-2,-1.9827347E-2,3.1346705E-2,-2.119813E-2,-1.82171E-2,-2.7269477E-2,-3.0466706E-2,-1.7299358E-2,6.2217987E-3,3.5130844E-2,-1.6780065E-2,3.4347707E-3,2.690328E-2,3.592462E-2,-1.3196205E-3,-1.9106707E-2,1.547563E-3,-1.55087E-2,-9.642755E-3,-2.4270987E-2,-1.4277461E-2,-3.0892674E-2,-1.00702215E-2,3.1960536E-2,-2.2124574E-2,-8.411501E-3],"split_indices":[3,6,6,6,6,1,6,6,3,0,0,1,6,3,0,2,0,0,2,0,1,6,3,2,0,2,3,2,1,2147483647,2147483647,0,3,2,0,1,0,2,3,2,9,7,0,1,0,9,1,2147483647,2147483647,2147483647,2147483647,2147483647,2147483647,2,3,0,1,3,0,0,4,0,0,0,0,7,1,2147483647,2147483647,0,0,2147483647,2147483647,0,0,2147483647,2147483647,2147483647,2147483647,0,0,0,0,0,0,0,0,0,0,2147483647,2147483647,2147483647,2147483647,0,0,0,0],"split_type":[0,0,0,0,0,0,0,0,0,0,0,0,0,0,0,0,0,0,0,0,0,0,0,0,0,0,0,0,0,0,0,0,0,0,0,0,0,0,0,0,0,0,0,0,0,0,0,0,0,0,0,0,0,0,0,0,0,0,0,0,0,0,0,0,0,0,0,0,0,0,0,0,0,0,0,0,0,0,0,0,0,0,0,0,0,0,0,0,0,0,0,0,0,0,0,0,0],"sum_hessian":[1.8947761E3,8.703827E2,1.0243934E3,8.3371814E2,3.6664536E1,7.0224133E2,3.221521E2,4.798931E2,3.5382507E2,2.0031805E1,1.663273E1,6.197254E2,8.251589E1,2.084436E2,1.1370849E2,4.262831E2,5.360999E1,2.71316E2,8.250908E1,5.7047324E0,1.0927999E1,2.018595E2,4.1786594E2,7.285988E1,9.656008E0,1.208903E2,8.755331E1,2.1479008E2,2.1149303E2,3.569806E1,4.681102E1,4.466567E0,6.461432E0,1.6997955E2,3.1879938E1,4.1262854E2,5.2373753E0,3.690744E1,3.5952442E1,5.736924E1,6.352106E1,7.0928055E1,1.662525E1,1.7336993E2,4.1420147E1,1.0909898E2,1.02394035E2,3.1485315E1,4.212745E0,2.4011408E1,2.279961E1,3.234042E0,3.2273898E0,9.786173E1,7.211783E1,1.436516E2,2.6897696E2,3.2699814E1,4.2076244E0,1.9971783E1,1.59806595E1,5.36316E1,3.73764E0,5.214995E0,5.8306065E1,2.4155184E1,4.6772873E1,3.9788404E0,1.2646409E1,7.431781E1,9.9052124E1,9.789554E1,1.1203445E1,3.9963174E0,9.839771E1,1.388257E1,1.7602745E1,1.1641667E1,1.1157944E1,7.1132576E1,2.6729153E1,2.6195654E1,4.5922173E1,1.8413568E2,8.484126E1,2.7709501E1,4.990314E0,5.245486E0,1.0735173E1,3.2325804E0,5.039902E1,3.22487E0,5.5081196E1,1.9666637E1,4.4885464E0,1.9877438E1,2.6895437E1],"tree_param":{"num_deleted":"20","num_feature":"10","num_nodes":"97","size_leaf_vector":"0"}},{"base_weights":[-1.0805535E-2,-8.397394E-1,6.8424326E-1,-9.472066E-1,1.4317538E0,1.1927073E0,-3.691049E-1,-4.530905E-1,-1.6003307E0,1.6062695E0,7.32438E-1,8.577104E-1,1.7747363E0,-5.2421856E-1,1.6020421E0,-7.27115E-1,1.7423187E0,-1.6630203E0,-1.4512942E0,1.4714348E0,-1.04307234E-1,2.1977901E-1,1.2814459E0,4.0333875E-2,-1.3965759E0,-2.8705242E-1,-1.3064382E0,-1.2143013E0,-1.7035882E0,7.321736E-1,-6.195235E-1,9.6323854E-1,1.5624685E0,-2.027141E-1,1.7008618E0,-1.1950843E0,-1.5488207E0,-5.858617E-1,1.7776556E0,-1.4871206E0,-1.1095196E0,-9.733311E-1,-1.3767557E0,1.0873743E0,1.6180412E-1,-1.2081441E0,1.3585129E0,1.1910334E0,2.8447208E-1,1.5904844E0,8.5483915E-1,2.3207648E-1,-6.5588576E-1,-1.2488139E0,-2.2790015E-1,-1.1943026E0,-3.2962564E-2,-7.331645E-1,-1.460225E0,-6.481203E-1,-1.2979571E0,6.2390715E-1,1.7316266E0,-1.49686E-2,1.4693972E0,-1.3533806E0,-8.681392E-1,5.9362084E-1,1.3955133E0,-6.284758E-1,1.6531535E0,1.6834142E0,1.364588E0,-8.213518E-2,1.6827772E0,-9.17431E-1,-4.064829E-1,-1.4138774E0,-1.0502961E0],"categories":[],"categories_nodes":[],"categories_segments":[],"categories_sizes":[],"default_left":[true,true,true,true,true,true,true,true,true,false,true,true,false,true,false,true,false,false,true,false,false,true,true,true,true,true,true,true,false,true,true,true,true,true,false,true,false,true,false,false,true,true,false,true,true,true,false,true,true,true,true,true,true,true,false,false,false,false,false,false,false,false,false,false,false,true,true,false,false,false,false,true,true,false,false,false,false,true,true],"id":7,"left_children":[1,3,5,7,9,11,13,15,17,-1,19,21,-1,23,-1,25,-1,-1,27,-1,-1,29,31,33,35,37,39,41,-1,43,45,47,-1,51,-1,53,-1,55,-1,-1,57,59,-1,61,63,-1,-1,67,69,-1,-1,73,75,-1,-1,-1,-1,-1,-1,-1,-1,-1,-1,-1,-1,-1,-1,-1,-1,-1,-1,-1,-1,-1,-1,-1,-1,-1,-1],"loss_changes":[1.0875042E3,2.1149939E2,5.503245E2,2.647323E2,3.6180725E0,1.3353442E2,1.03270676E2,2.8382516E2,8.9282227E-1,0E0,6.141714E0,1.1908142E2,0E0,1.5338214E2,0E0,1.0625758E2,0E0,0E0,4.665985E0,0E0,0E0,7.6765976E1,2.2203217E1,7.7018616E1,1.9021454E0,1.4848471E2,4.7644043E0,1.0698471E0,0E0,2.2239319E1,8.059087E1,1.9289055E1,1.3996277E0,3.298162E1,0E0,2.6792984E0,0E0,7.044587E1,0E0,0E0,1.083535E1,2.1361427E0,0E0,1.9225456E1,1.0108002E1,1.4317322E0,0E0,1.0743927E1,4.2537544E1,4.8892212E-1,0E0,3.9235336E1,4.9658737E0,2.7827454E-1,0E0,0E0,0E0,0E0,0E0,0E0,0E0,0E0,0E0,0E0,0E0,0E0,0E0,0E0,0E0,0E0,0E0,0E0,0E0,0E0,0E0,0E0,0E0,0E0,0E0],"parents":[2147483647,0,0,1,1,2,2,3,3,4,4,5,5,6,6,7,7,8,8,10,10,11,11,13,13,15,15,18,18,21,21,22,22,23,23,24,24,25,25,26,26,27,27,29,29,30,30,31,31,32,32,33,33,35,35,37,37,40,40,41,41,43,43,44,44,45,45,47,47,48,48,49,49,51,51,52,52,53,53],"right_children":[2,4,6,8,10,12,14,16,18,-1,20,22,-1,24,-1,26,-1,-1,28,-1,-1,30,32,34,36,38,40,42,-1,44,46,48,-1,52,-1,54,-1,56,-1,-1,58,60,-1,62,64,-1,-1,68,70,-1,-1,74,76,-1,-1,-1,-1,-1,-1,-1,-1,-1,-1,-1,-1,-1,-1,-1,-1,-1,-1,-1,-1,-1,-1,-1,-1,-1,-1],"split_conditions":[3.9017002E1,2.011789E0,9.9989974E-1,1.9996197E0,9.882109E-1,1.1489874E-4,2.0015736E0,1.0003681E0,3.517628E1,3.2125387E-2,6.72E2,4.4001762E1,3.5494726E-2,1.9972429E0,3.2040842E-2,9.9798906E-1,3.4846373E-2,-3.3260405E-2,9.186632E-1,2.9428696E-2,-2.0861446E-3,1.9991143E0,4.900435E1,1.0034592E0,8.2087195E-1,7.097024E-4,1.9993387E-1,9.0648663E-1,-3.4071766E-2,9.956082E-1,2.0658398E0,1.9930594E0,3.124937E-2,9.9994576E-1,3.4017235E-2,9.318826E0,-3.0976415E-2,6.1114854E-3,3.5553113E-2,-2.9742412E-2,1.888497E0,5.8454065E0,-2.7535114E-2,3.735807E-3,1.0277731E0,-2.4162881E-2,2.7170258E-2,1.3881347E-2,2.059307E0,3.1809688E-2,1.7096782E-2,4.5744746E-4,2.5707826E-1,-2.4976278E-2,-4.558003E-3,-2.3886051E-2,-6.592513E-4,-1.4663289E-2,-2.9204499E-2,-1.2962406E-2,-2.5959142E-2,1.2478143E-2,3.463253E-2,-2.9937198E-4,2.9387943E-2,-2.7067611E-2,-1.7362785E-2,1.1872416E-2,2.7910266E-2,-1.2569515E-2,3.306307E-2,3.3668283E-2,2.729176E-2,-1.6427035E-3,3.3655543E-2,-1.834862E-2,-8.129658E-3,-2.8277546E-2,-2.1005921E-2],"split_indices":[3,6,8,6,8,8,6,6,3,0,0,3,0,6,0,8,0,0,8,0,0,6,3,6,2,8,1,2,0,2,6,6,3,2,0,4,0,1,0,0,1,4,0,2,6,0,0,1,6,2147483647,2147483647,2,1,1,0,0,0,0,0,0,0,0,0,0,0,2147483647,2147483647,0,0,0,0,2147483647,2147483647,0,0,0,0,2147483647,2147483647],"split_type":[0,0,0,0,0,0,0,0,0,0,0,0,0,0,0,0,0,0,0,0,0,0,0,0,0,0,0,0,0,0,0,0,0,0,0,0,0,0,0,0,0,0,0,0,0,0,0,0,0,0,0,0,0,0,0,0,0,0,0,0,0,0,0,0,0,0,0,0,0,0,0,0,0,0,0,0,0,0,0],"sum_hessian":[1.8855406E3,8.59851E2,1.0256896E3,8.2156476E2,3.828627E1,6.916766E2,3.3401303E2,4.6868124E2,3.528835E2,2.960209E1,8.684178E0,4.4057156E2,2.5110498E2,3.103268E2,2.3686214E1,4.172679E2,5.1413338E1,2.4124841E2,1.1163509E2,4.2086554E0,4.475523E0,1.764483E2,2.6412326E2,1.8898048E2,1.2134634E2,2.3798584E2,1.7928207E2,6.056052E1,5.1074577E1,1.0964041E2,6.680789E1,1.2594309E2,1.3818018E2,1.6561734E2,2.3363138E1,5.6035175E1,6.5311165E1,2.0852402E2,2.9461824E1,9.00786E1,8.9203476E1,2.7202374E1,3.3358147E1,6.7005775E1,4.2634636E1,5.178656E1,1.502133E1,9.373187E1,3.221122E1,1.3171768E2,6.462484E0,8.477183E1,8.084551E1,5.281025E1,3.224925E0,9.872332E1,1.098007E2,4.4519E1,4.468448E1,1.5085853E1,1.2116521E1,4.011556E1,2.6890215E1,3.8428116E1,4.2065215E0,3.419804E1,1.7588518E1,2.4896593E1,6.883528E1,1.9646973E1,1.2564249E1,8.875381E1,4.296388E1,7.045512E1,1.4316706E1,3.8154705E1,4.2690807E1,2.5491999E1,2.7318253E1],"tree_param":{"num_deleted":"8","num_feature":"10","num_nodes":"79","size_leaf_vector":"0"}},{"base_weights":[1.3573194E-2,5.2973366E-1,-8.471215E-1,6.9899105E-2,1.7573863E0,-9.6276635E-1,1.3211932E0,5.177609E-1,-6.4629334E-1,-5.7565784E-1,-1.472056E0,7.3266613E-1,1.5746999E0,2.634055E-1,1.7485843E0,-1.2379724E0,1.608214E0,-8.01794E-1,1.6976901E0,-1.5994953E0,-1.2748077E0,1.0984559E0,-2.5651228E-1,-3.2567367E-1,6.700566E-1,-1.5183088E0,-8.823512E-1,-4.6609643E-1,-1.1083679E0,-9.864469E-1,-1.4768665E0,1.491301E0,3.915268E-1,4.7839767E-1,-7.108367E-1,9.971867E-1,-3.2361004E-1,-1.0118256E0,-4.0500742E-1,-7.385764E-1,1.6881728E0,-6.539074E-1,-1.1721934E0,-1.2229477E0,-7.8518134E-1,-7.831043E-1,-1.5939757E0,7.925412E-1,4.195993E-2,-1.0279788E0,-2.0980339E-1,1.7719404E0,7.47613E-1,3.57254E-1,-7.29141E-1,-1.0762273E0,-3.5997736E-1,-1.4487866E0,-1.581573E-1,-1.0466204E0,-4.3802872E-1,-1.771348E-1,-1.6159171E0,-1.336652E0,-9.9497974E-1,-1.4185305E0,-8.6001843E-1,-4.1059807E-1,-1.0365658E0,-3.328266E-1,-1.1576687E0],"categories":[],"categories_nodes":[],"categories_segments":[],"categories_sizes":[],"default_left":[true,true,true,true,false,true,true,true,true,true,true,true,false,true,false,true,false,true,false,false,true,true,false,true,true,false,true,true,true,true,true,false,false,true,true,true,true,true,true,true,false,true,true,true,true,true,false,false,false,false,false,false,false,false,false,false,false,false,false,false,false,false,false,false,false,true,true,false,false,false,false],"id":8,"left_children":[1,3,5,7,-1,9,11,13,15,17,19,21,-1,23,-1,25,-1,27,-1,-1,29,31,-1,33,35,-1,37,39,41,43,45,-1,-1,47,49,51,53,55,57,59,-1,61,63,-1,67,69,-1,-1,-1,-1,-1,-1,-1,-1,-1,-1,-1,-1,-1,-1,-1,-1,-1,-1,-1,-1,-1,-1,-1,-1,-1],"loss_changes":[8.265205E2,6.564029E2,1.7616357E2,2.7205212E2,0E0,1.2980902E2,4.177986E0,1.62882E2,4.373472E2,1.9577316E2,5.139038E0,4.851371E0,0E0,1.0408014E2,0E0,2.4489502E1,0E0,3.4951874E1,0E0,0E0,5.3605804E0,2.0291338E0,0E0,5.538629E1,8.380748E1,0E0,6.7962112E0,9.882279E1,4.4373627E0,1.4777756E0,4.177902E0,0E0,0E0,7.941221E0,1.8943958E1,3.608319E1,1.803261E1,3.4348907E0,6.610326E0,1.3267799E1,0E0,1.08844185E1,3.2180328E0,3.2424927E-1,2.4430637E0,1.5730433E0,0E0,0E0,0E0,0E0,0E0,0E0,0E0,0E0,0E0,0E0,0E0,0E0,0E0,0E0,0E0,0E0,0E0,0E0,0E0,0E0,0E0,0E0,0E0,0E0,0E0],"parents":[2147483647,0,0,1,1,2,2,3,3,5,5,6,6,7,7,8,8,9,9,10,10,11,11,13,13,15,15,17,17,20,20,21,21,23,23,24,24,26,26,27,27,28,28,29,29,30,30,33,33,34,34,35,35,36,36,37,37,38,38,39,39,41,41,42,42,43,43,44,44,45,45],"right_children":[2,4,6,8,-1,10,12,14,16,18,20,22,-1,24,-1,26,-1,28,-1,-1,30,32,-1,34,36,-1,38,40,42,44,46,-1,-1,48,50,52,54,56,58,60,-1,62,64,-1,68,70,-1,-1,-1,-1,-1,-1,-1,-1,-1,-1,-1,-1,-1,-1,-1,-1,-1,-1,-1,-1,-1,-1,-1,-1,-1],"split_conditions":[9.9989974E-1,6.797864E-4,2.0024538E0,1.9999509E0,3.5147727E-2,1.9999735E0,2.2150715E4,1.001107E0,2.0005922E0,1.003274E0,7.721947E4,6.457699E0,3.1493995E-2,2.794071E-4,3.4971684E-2,4.5580816E4,3.216428E-2,9.984622E-1,3.39538E-2,-3.1989906E-2,9.0016294E-1,9.0303963E-1,-5.1302454E-3,2.1514385E4,1.9969525E0,-3.0366175E-2,1.0062177E0,4.5744746E-4,2.43926E4,3.3140152E0,1.9447136E0,2.9826019E-2,7.830536E-3,9.972948E-1,1.3332433E5,9.92687E-1,7.610894E4,1.6457005E5,4.7540555E4,8.677822E-2,3.3763457E-2,1.6894635E0,1.43252155E-2,-2.4458954E-2,6.48E2,6.555E2,-3.187951E-2,1.5850823E-2,8.391986E-4,-2.0559575E-2,-4.196068E-3,3.5438806E-2,1.495226E-2,7.14508E-3,-1.4582819E-2,-2.1524545E-2,-7.1995473E-3,-2.897573E-2,-3.163146E-3,-2.0932406E-2,-8.760574E-3,-3.542696E-3,-3.2318342E-2,-2.673304E-2,-1.9899594E-2,-2.837061E-2,-1.7200368E-2,-8.211961E-3,-2.0731315E-2,-6.656532E-3,-2.3153374E-2],"split_indices":[8,8,6,6,0,6,5,6,6,6,5,4,0,1,0,5,0,2,0,0,2,2,0,5,1,0,1,2,9,4,4,0,0,2,5,1,5,5,9,1,0,1,1,5,0,0,0,0,0,0,0,0,0,0,0,0,0,0,0,0,0,0,0,0,0,2147483647,2147483647,0,0,0,0],"split_type":[0,0,0,0,0,0,0,0,0,0,0,0,0,0,0,0,0,0,0,0,0,0,0,0,0,0,0,0,0,0,0,0,0,0,0,0,0,0,0,0,0,0,0,0,0,0,0,0,0,0,0,0,0,0,0,0,0,0,0,0,0,0,0,0,0,0,0,0,0,0,0],"sum_hessian":[1.8584476E3,1.1619863E3,6.9646124E2,8.46118E2,3.158684E2,6.617248E2,3.4736443E1,5.207504E2,3.2536755E2,3.7717004E2,2.8455475E2,1.1629098E1,2.3107346E1,4.325715E2,8.817891E1,2.5808572E2,6.728183E1,3.4363504E2,3.353501E1,1.6854878E2,1.1600597E2,8.409036E0,3.2200627E0,1.767413E2,2.5583022E2,1.4249074E2,1.1559498E2,1.6522952E2,1.784055E2,5.0219307E1,6.578667E1,4.6920724E0,3.716963E0,5.716366E1,1.19577644E2,1.9246446E2,6.3365753E1,9.005015E1,2.554483E1,1.472606E2,1.7968914E1,2.3354982E1,1.5505052E2,2.0754757E1,2.9464548E1,1.0611345E1,5.517532E1,3.2764305E1,2.4399353E1,7.258278E1,4.6994865E1,4.5407063E1,1.4705739E2,2.369769E1,3.9668064E1,8.136076E1,8.6893835E0,3.9545112E0,2.159032E1,7.1497475E1,7.576314E1,1.6407532E1,6.947452E0,7.702598E1,7.802454E1,1.1596721E1,9.158036E0,1.2890298E1,1.657425E1,5.6762667E0,4.9350786E0],"tree_param":{"num_deleted":"2","num_feature":"10","num_nodes":"71","size_leaf_vector":"0"}},{"base_weights":[7.453173E-3,-8.0461794E-1,7.029279E-1,-3.416968E-1,-1.2832527E0,1.1760813E0,-2.9067913E-1,-8.045059E-1,1.7483628E0,-1.0705423E0,-1.5083477E0,8.7441957E-1,1.7213073E0,1.228075E-1,-8.0764E-1,-4.193405E-1,-1.267898E0,-1.2682892E0,1.6780534E0,2.366601E-1,1.2685603E0,-2.925933E-1,1.7014385E0,-7.031865E-1,-1.4555831E0,-7.1567076E-1,1.7014638E0,-1.403555E0,-1.11093E0,-1.3842888E0,-1.0218263E0,-4.490363E-1,6.149703E-1,1.444428E0,8.8704354E-1,-1.1742714E-1,-1.3193182E0,-1.11459E0,-3.7289736E-1,-1.1026381E0,-3.5419506E-1,-1.4341004E0,-6.1400586E-1,-8.1266195E-1,-1.4028659E0,-1.4236953E0,-9.692705E-1,-1.3309355E0,-6.860938E-1,-6.7640364E-2,-9.0079176E-1,1.0741779E0,-5.637675E-1,1.2092987E0,1.7348336E0,3.307949E-1,1.3148916E0,3.9269632E-1,-4.4754636E-1,-8.4754956E-1,-1.6070331E0,-6.197551E-1,-1.2705978E0,-1.5995145E-1,-9.742789E-1,-1.3746378E0,-6.423463E-1,2.1982485E-1,-1.1491126E0,-1.4830681E0,-9.5551044E-1,-1.0763049E0,-4.0164128E-1,-8.528266E-1,-1.4600211E0,-1.316824E0,-1.5932728E0,-3.2628167E-1,-1.1827043E0,-6.4856654E-1,-1.3947531E0,-1.9033033E-1,-1.1723349E0,-4.597031E-1,1.5112623E0,-1.0058426E0,-6.603993E-2,1.6809909E0,8.547285E-1,-4.6336137E-2,-1.0390837E0,9.7270125E-1,1.4874126E0,-2.4498922E-1,7.4440086E-1,1.4164456E0,-1.2953645E-1,-6.1832536E-2,1.7523699E0,-2.678456E-1,-1.0420899E0,-1.5679966E-1,-1.1815692E0,-9.2951405E-1,4.3565422E-1,-7.849044E-1,-1.3640407E0,-6.0937834E-1,5.6338865E-1,1.0748785E-1,-1.2257693E0],"categories":[],"categories_nodes":[],"categories_segments":[],"categories_sizes":[],"default_left":[true,true,true,true,true,true,true,true,false,true,false,true,false,true,true,true,true,true,false,true,true,true,false,true,false,true,false,true,true,true,true,true,true,true,true,true,true,true,true,true,true,true,true,true,true,true,true,true,true,true,true,true,true,true,false,true,true,true,true,true,false,true,true,true,true,false,false,false,false,true,true,false,false,true,true,true,true,false,false,true,true,false,false,false,false,false,false,false,false,false,false,false,false,false,false,false,false,false,false,false,false,false,false,false,false,true,true,false,false,false,false],"id":9,"left_children":[1,3,5,7,9,11,13,15,-1,17,-1,19,-1,21,23,25,27,29,-1,31,33,35,-1,37,-1,39,-1,-1,43,45,47,49,51,53,55,57,59,61,63,65,67,-1,-1,71,-1,-1,77,-1,81,83,85,87,89,91,-1,93,95,97,99,101,-1,103,-1,107,109,-1,-1,-1,-1,-1,-1,-1,-1,-1,-1,-1,-1,-1,-1,-1,-1,-1,-1,-1,-1,-1,-1,-1,-1,-1,-1,-1,-1,-1,-1,-1,-1,-1,-1,-1,-1,-1,-1,-1,-1,-1,-1,-1,-1,-1,-1],"loss_changes":[1.072968E3,1.9375537E2,4.8145718E2,4.3369083E2,1.8999817E1,1.125484E2,7.083641E1,6.4893845E1,0E0,1.2431723E2,0E0,1.1243088E2,0E0,1.21637985E2,8.938484E0,1.2796094E2,1.9732361E0,4.597595E0,0E0,4.503044E1,1.7300842E1,2.6300789E1,0E0,1.707151E1,0E0,2.4459404E1,0E0,1.173996E0,5.9741364E0,9.124756E-1,6.4673767E0,1.0607755E1,6.1016277E1,1.0737335E1,2.097802E1,2.1522291E1,1.5346909E0,3.597908E0,9.178157E0,9.799988E0,4.2836685E1,4.8747253E-1,0E0,4.2044945E0,9.597778E-3,1.8331909E-1,1.7121897E0,6.6150665E-1,8.492422E0,2.2147667E1,2.4121075E0,9.30439E0,7.808569E0,5.605255E0,0E0,9.816298E0,7.594246E0,3.121576E1,7.9929676E0,2.168252E0,0E0,5.494761E0,8.4630585E-1,1.8230755E1,5.263609E0,0E0,0E0,0E0,0E0,0E0,0E0,0E0,0E0,0E0,0E0,0E0,0E0,0E0,0E0,0E0,0E0,0E0,0E0,0E0,0E0,0E0,0E0,0E0,0E0,0E0,0E0,0E0,0E0,0E0,0E0,0E0,0E0,0E0,0E0,0E0,0E0,0E0,0E0,0E0,0E0,0E0,0E0,0E0,0E0,0E0,0E0],"parents":[2147483647,0,0,1,1,2,2,3,3,4,4,5,5,6,6,7,7,9,9,11,11,13,13,14,14,15,15,16,16,17,17,19,19,20,20,21,21,23,23,25,25,27,27,28,28,29,29,30,30,31,31,32,32,33,33,34,34,35,35,36,36,37,37,38,38,39,39,40,40,41,41,43,43,44,44,45,45,46,46,47,47,48,48,49,49,50,50,51,51,52,52,53,53,55,55,56,56,57,57,58,58,59,59,61,61,62,62,63,63,64,64],"right_children":[2,4,6,8,10,12,14,16,-1,18,-1,20,-1,22,24,26,28,30,-1,32,34,36,-1,38,-1,40,-1,-1,44,46,48,50,52,54,56,58,60,62,64,66,68,-1,-1,72,-1,-1,78,-1,82,84,86,88,90,92,-1,94,96,98,100,102,-1,104,-1,108,110,-1,-1,-1,-1,-1,-1,-1,-1,-1,-1,-1,-1,-1,-1,-1,-1,-1,-1,-1,-1,-1,-1,-1,-1,-1,-1,-1,-1,-1,-1,-1,-1,-1,-1,-1,-1,-1,-1,-1,-1,-1,-1,-1,-1,-1,-1],"split_conditions":[3.900756E1,9.996319E-1,9.9989974E-1,4.914911E-5,9.983214E-1,1.1489874E-4,9.9994576E-1,9.741945E-1,3.4967255E-2,6.8179965E-3,-3.0166954E-2,4.4001762E1,3.4426145E-2,3.4345025E-3,6.35E1,1.1060699E-2,1.5184551E-1,3.53711E1,3.3561066E-2,1.1069702E-3,9.977884E-1,6.1822006E1,3.402877E-2,4.4044342E1,-2.9111661E-2,4.0468057E-3,3.4029275E-2,-2.80711E-2,1.980026E0,1.7749931E5,2.2037033E-2,9.893391E-1,1.9982285E0,2.4351166E-3,4.901586E1,9.929408E-1,6.46E2,5.905E2,1.8771365E0,3.45E1,1.9952581E0,-2.8682007E-2,-1.2280117E-2,3.4041626E1,-2.8057316E-2,-2.8473906E-2,1.8325603E5,-2.661871E-2,1.8830487E0,1.345036E-2,1.7427156E5,9.9772185E-1,9.373074E-1,5.0018913E1,3.4696672E-2,1.7471507E-2,6.55E1,2.4187684E-2,1.5831909E0,7.497359E4,-3.214066E-2,1.5885388E5,-2.5411956E-2,8.9534804E-2,5.745E2,-2.7492756E-2,-1.2846926E-2,4.396497E-3,-2.298225E-2,-2.9661361E-2,-1.9110208E-2,-2.1526098E-2,-8.032826E-3,-1.7056532E-2,-2.9200422E-2,-2.6336478E-2,-3.1865455E-2,-6.5256334E-3,-2.3654087E-2,-1.297133E-2,-2.7895061E-2,-3.8066064E-3,-2.3446698E-2,-9.194061E-3,3.0225245E-2,-2.011685E-2,-1.3207985E-3,3.3619817E-2,1.709457E-2,-9.267227E-4,-2.0781673E-2,1.9454025E-2,2.9748252E-2,-4.899784E-3,1.48880165E-2,2.8328912E-2,-2.590729E-3,-1.2366507E-3,3.5047397E-2,-5.356912E-3,-2.0841798E-2,-3.1359931E-3,-2.3631385E-2,-1.859028E-2,8.713084E-3,-1.5698088E-2,-2.7280815E-2,-1.2187567E-2,1.1267773E-2,2.149757E-3,-2.4515385E-2],"split_indices":[3,2,8,2,8,8,2,8,0,8,0,3,0,2,3,8,1,3,0,1,2,3,0,3,0,1,0,4,1,9,1,2,1,2,3,7,0,0,1,3,1,2147483647,2147483647,3,9,9,9,0,1,2,9,1,2,3,0,1,3,7,1,9,0,9,9,1,0,0,0,0,0,2147483647,2147483647,0,0,2147483647,2147483647,2147483647,2147483647,0,0,2147483647,2147483647,0,0,0,0,0,0,0,0,0,0,0,0,0,0,0,0,0,0,0,0,0,0,0,0,2147483647,2147483647,0,0,0,0],"split_type":[0,0,0,0,0,0,0,0,0,0,0,0,0,0,0,0,0,0,0,0,0,0,0,0,0,0,0,0,0,0,0,0,0,0,0,0,0,0,0,0,0,0,0,0,0,0,0,0,0,0,0,0,0,0,0,0,0,0,0,0,0,0,0,0,0,0,0,0,0,0,0,0,0,0,0,0,0,0,0,0,0,0,0,0,0,0,0,0,0,0,0,0,0,0,0,0,0,0,0,0,0,0,0,0,0,0,0,0,0,0,0],"sum_hessian":[1.8978137E3,8.754442E2,1.02236957E3,4.4589847E2,4.2954578E2,6.9244507E2,3.2992447E2,3.655652E2,8.033328E1,2.2380783E2,2.0573793E2,4.4747214E2,2.4497295E2,1.8373116E2,1.4619331E2,2.006732E2,1.64892E2,2.0928915E2,1.4518678E1,1.715261E2,2.7594604E2,1.4610085E2,3.763031E1,1.276934E2,1.8499918E1,1.7665285E2,2.4020348E1,8.419027E1,8.070172E1,1.3917082E2,7.0118324E1,6.0920063E1,1.10606026E2,1.8697173E2,8.897432E1,1.2575976E2,2.0341087E1,5.580673E1,7.188667E1,8.4327805E1,9.232505E1,8.0268555E1,3.9217145E0,4.1789494E1,3.8912228E1,1.2488262E2,1.4288207E1,3.4963303E1,3.5155025E1,3.365579E1,2.7264275E1,7.966082E1,3.0945206E1,1.0617247E2,8.079925E1,3.945357E1,4.952075E1,4.9334717E1,7.642504E1,9.200592E0,1.1140496E1,1.4568873E1,4.1237854E1,5.4023293E1,1.7863379E1,5.175677E1,3.2571033E1,5.403161E1,3.8293438E1,7.091404E1,9.354515E0,2.4473028E1,1.7316467E1,5.161476E0,3.375075E1,8.19815E1,4.2901123E1,4.1910396E0,1.0097168E1,3.9449372E0,3.1018366E1,1.8096035E1,1.7058989E1,2.7528852E1,6.126937E0,2.4034634E1,3.2296417E0,1.9388477E1,6.0272343E1,1.5341676E1,1.560353E1,5.9798275E1,4.6374195E1,1.6663649E1,2.278992E1,4.6285873E1,3.2348711E0,3.7689816E1,1.1644903E1,5.980077E1,1.6624271E1,3.477853E0,5.722739E0,1.13553915E1,3.2134821E0,8.170326E0,3.3067528E1,3.34177E1,2.060559E1,3.4775512E0,1.4385827E1],"tree_param":{"num_deleted":"12","num_feature":"10","num_nodes":"111","size_leaf_vector":"0"}},{"base_weights":[3.0295895E-2,5.3824633E-1,-8.2204914E-1,9.774928E-2,1.7062032E0,-9.3430084E-1,1.2790701E0,5.44719E-1,-6.376549E-1,-5.2641654E-1,-1.4493057E0,1.347512E0,4.4381657E-1,-1.687907E-1,9.711256E-1,-1.225984E0,1.602064E0,-7.2180444E-1,1.6563118E0,-1.3086871E0,-1.5558854E0,-3.1739497E-1,1.6264652E0,1.2451148E0,-1.3405704E-1,-1.3576055E0,-1.0713183E0,-5.632498E-1,-1.2032069E0,-1.3322165E0,-8.796235E-1,-9.884038E-1,-1.573712E0,9.704452E-2,-7.269291E-1,1.7196974E0,1.0445446E0,-2.9123703E-1,1.4686772E0,-1.1292164E0,-1.4403491E0,-8.367381E-1,-1.2548671E0,-1.0028952E0,5.561356E-2,-9.130676E-1,-1.4193891E0,-1.4399253E0,-1.1935235E0,-4.5211545E-1,-1.0377529E0,-2.6340458E-1,1.6914765E0,-7.8677595E-1,5.583169E-1,8.1751436E-1,1.717734E0,8.395527E-2,-5.8335257E-1,-3.1832775E-1,-1.2516133E0,-7.6120394E-1,-1.4593588E0,-7.393762E-1,-1.3275595E0,-1.3366456E0,-4.7758272E-1,-7.404761E-1,-1.2292554E0,1.7282135E0,-1.858763E-1,-9.819623E-1,-2.4700041E-1,-8.6777115E-1,-1.5090067E0],"categories":[],"categories_nodes":[],"categories_segments":[],"categories_sizes":[],"default_left":[true,true,true,true,false,true,true,true,true,true,true,true,true,true,true,true,false,true,false,true,true,true,false,true,true,true,true,true,true,true,true,true,true,true,true,false,true,true,false,true,true,true,true,true,true,true,false,false,true,true,true,false,false,false,false,false,false,false,false,false,false,true,true,false,false,false,false,false,false,false,false,false,false,false,false],"id":10,"left_children":[1,3,5,7,-1,9,-1,13,15,17,19,-1,-1,21,23,25,-1,27,-1,29,-1,33,-1,35,37,39,41,43,45,47,-1,-1,-1,51,53,-1,55,57,-1,59,-1,63,65,67,69,71,-1,-1,73,-1,-1,-1,-1,-1,-1,-1,-1,-1,-1,-1,-1,-1,-1,-1,-1,-1,-1,-1,-1,-1,-1,-1,-1,-1,-1],"loss_changes":[8.101823E2,6.030656E2,1.660062E2,2.8055368E2,0E0,1.3870221E2,1.4520035E0,1.6164082E2,4.272013E2,1.5987236E2,2.3529663E0,0E0,0E0,5.370927E1,1.0080783E2,3.7600098E0,0E0,2.5441193E1,0E0,1.6644287E-1,7.626343E-2,3.1466852E1,0E0,2.35643E1,1.7288557E1,9.179077E-1,4.224716E0,7.060351E1,3.9664688E0,1.2968445E-1,1.9568539E-1,0E0,0E0,5.3791515E1,7.604862E0,0E0,2.7607773E1,6.8207784E0,0E0,3.6148338E0,1.1824036E-1,1.7317162E0,3.6031723E0,8.097839E0,4.4203476E1,1.5299454E0,0E0,0E0,4.8492584E0,0E0,0E0,0E0,0E0,0E0,0E0,0E0,0E0,0E0,0E0,0E0,0E0,0E0,0E0,0E0,0E0,0E0,0E0,0E0,0E0,0E0,0E0,0E0,0E0,0E0,0E0],"parents":[2147483647,0,0,1,1,2,2,3,3,5,5,6,6,7,7,8,8,9,9,10,10,13,13,14,14,15,15,17,17,19,19,20,20,21,21,23,23,24,24,25,25,26,26,27,27,28,28,29,29,30,30,33,33,34,34,36,36,37,37,39,39,40,40,41,41,42,42,43,43,44,44,45,45,48,48],"right_children":[2,4,6,8,-1,10,-1,14,16,18,20,-1,-1,22,24,26,-1,28,-1,30,-1,34,-1,36,38,40,42,44,46,48,-1,-1,-1,52,54,-1,56,58,-1,60,-1,64,66,68,70,72,-1,-1,74,-1,-1,-1,-1,-1,-1,-1,-1,-1,-1,-1,-1,-1,-1,-1,-1,-1,-1,-1,-1,-1,-1,-1,-1,-1,-1],"split_conditions":[9.9989974E-1,6.5559574E-4,2.0015736E0,1.998012E0,3.4124065E-2,1.9972429E0,2.5581403E-2,4.870233E-3,2.0005922E0,1.003274E0,9.27019E-1,2.695024E-2,8.876331E-3,1.0025666E0,1.9969525E0,1.32593E-1,3.2041278E-2,1.962225E0,3.3126235E-2,9.031623E0,-3.1117707E-2,9.9435294E-1,3.2529302E-2,9.984071E-1,1.0119394E0,9.8150146E-1,1.9972401E0,1.084273E-4,6.365E2,9.983708E-2,-1.759247E-2,-1.9768076E-2,-3.147424E-2,8.0845095E-3,1.914586E5,3.4393948E-2,1.0008885E0,9.3500763E-1,2.9373543E-2,5.405E2,-2.880698E-2,7.43E2,7.685E2,9.5110685E-1,9.995426E-1,1.787261E5,-2.8387781E-2,-2.8798506E-2,1.5356058E0,-9.042309E-3,-2.0755056E-2,-5.2680913E-3,3.382953E-2,-1.5735518E-2,1.1166338E-2,1.6350286E-2,3.435468E-2,1.6791055E-3,-1.1667051E-2,-6.366555E-3,-2.5032265E-2,-1.5224079E-2,-2.9187176E-2,-1.4787523E-2,-2.6551189E-2,-2.6732912E-2,-9.551655E-3,-1.4809521E-2,-2.4585107E-2,3.456427E-2,-3.7175259E-3,-1.9639246E-2,-4.9400083E-3,-1.7355423E-2,-3.0180134E-2],"split_indices":[8,8,6,6,0,6,0,1,6,6,2,2147483647,2147483647,6,1,1,0,1,0,4,4,2,0,1,6,7,1,1,0,1,9,2147483647,2147483647,2,9,0,1,2,0,0,4,0,0,2,1,9,0,0,1,2147483647,2147483647,0,0,0,0,0,0,0,0,0,0,2147483647,2147483647,0,0,0,0,0,0,0,0,0,0,0,0],"split_type":[0,0,0,0,0,0,0,0,0,0,0,0,0,0,0,0,0,0,0,0,0,0,0,0,0,0,0,0,0,0,0,0,0,0,0,0,0,0,0,0,0,0,0,0,0,0,0,0,0,0,0,0,0,0,0,0,0,0,0,0,0,0,0,0,0,0,0,0,0,0,0,0,0,0,0],"sum_hessian":[1.8692892E3,1.1715054E3,6.9778375E2,8.5145953E2,3.200458E2,6.6292267E2,3.4861122E1,5.297458E2,3.2171375E2,3.7106274E2,2.9185992E2,3.1654047E1,3.207076E0,1.9838715E2,3.3135864E2,2.5514493E2,6.656882E1,3.4119025E2,2.9872488E1,1.3156088E2,1.6029903E2,1.8398111E2,1.4406033E1,2.6542877E2,6.592988E1,1.3363928E2,1.2150564E2,2.5828998E2,8.290028E1,1.2272577E2,8.835115E0,6.601304E0,1.5369772E2,9.182216E1,9.215895E1,7.660192E1,1.8882686E2,6.078681E1,5.143069E0,3.943575E1,9.420354E1,5.577827E1,6.572737E1,1.5064795E2,1.0764202E2,3.7625916E1,4.5274364E1,6.3798115E1,5.8927658E1,3.427609E0,5.4075065E0,7.557248E1,1.6249678E1,8.842913E1,3.7298179E0,1.4286176E2,4.59651E1,2.6921507E1,3.3865307E1,5.644079E0,3.379167E1,3.6825626E0,9.052097E1,4.863682E1,7.1414495E0,5.881932E1,6.908048E0,7.174513E1,7.8902824E1,1.2803857E1,9.4838165E1,3.366908E1,3.9568372E0,3.0837246E1,2.809041E1],"tree_param":{"num_deleted":"8","num_feature":"10","num_nodes":"75","size_leaf_vector":"0"}},{"base_weights":[-1.43429665E-2,-6.7292356E-1,7.920809E-1,-2.8875816E-1,-1.2166088E0,1.2454196E0,-1.8678495E-1,-6.8852323E-1,1.6843909E0,-1.2714773E0,6.966082E-1,1.4410559E0,6.6531897E-1,-3.5365683E-1,1.5321336E0,-2.5216615E-1,-1.2369673E0,-1.0154802E0,-1.5668095E0,-5.900986E-2,1.1562018E0,1.2732168E0,1.6695161E0,-4.861193E-1,1.6639831E0,9.146463E-2,-1.13318E0,-4.3608445E-1,1.640694E0,-1.4617026E0,1.2229145E0,-1.1527202E0,1.5517688E0,6.263673E-1,1.383569E0,5.599555E-1,1.3781971E0,-1.1183509E0,3.0179745E-1,-1.3918598E-1,1.6086116E0,-1.5326095E-1,-1.1677711E0,-1.0115881E0,2.5224114E-2,-1.5540613E0,-1.2554259E0,1.3137355E0,5.764949E-1,-1.3942353E0,-9.557692E-1,1.6022426E0,4.274155E-2,1.4080524E0,7.453416E-2,-1.2186217E0,-6.7379866E-3,-1.8985692E-1,9.1877955E-1,4.4138707E-2,-1.2919545E0,-4.9809423E-1,-1.1977909E0,-1.2938349E0,-6.263978E-1,1.7197202E0,-2.7983093E-1,-9.664687E-1,-1.5761423E0,-1.3235575E0,-9.46251E-1,7.320922E-1,1.4264358E0,-1.5377464E0,-1.2376789E0,5.038851E-1,-9.996759E-1,-7.0258486E-1,4.8118868E-1,1.2225862E0,1.5893232E0,-5.3948516E-1,-1.3296908E0,-9.69352E-1,3.1157032E-1,1.2175417E0,2.0611447E-3,2.7076963E-1,-8.158392E-1,-6.915092E-1,-1.4991587E0,-1.275154E0,-8.634601E-1],"categories":[],"categories_nodes":[],"categories_segments":[],"categories_sizes":[],"default_left":[true,true,true,true,true,true,true,true,false,true,true,true,true,true,false,true,true,true,false,false,true,true,false,true,false,true,true,true,false,true,true,true,false,true,true,true,true,true,true,true,false,false,true,true,true,true,true,true,true,true,true,false,true,true,false,true,false,true,true,true,true,true,true,false,false,false,false,true,true,true,true,true,true,true,true,false,false,false,false,false,false,false,false,false,false,false,false,false,false,true,true,true,true],"id":11,"left_children":[1,3,5,7,9,11,13,15,-1,17,19,21,23,25,-1,27,29,31,-1,-1,-1,35,-1,37,-1,39,41,43,-1,45,-1,49,-1,-1,-1,51,53,55,57,59,-1,-1,-1,63,65,-1,-1,-1,-1,-1,75,-1,77,79,-1,81,-1,83,85,87,-1,-1,-1,-1,-1,-1,-1,-1,-1,-1,-1,-1,-1,-1,-1,-1,-1,-1,-1,-1,-1,-1,-1,-1,-1,-1,-1,-1,-1,-1,-1,-1,-1],"loss_changes":[9.9729626E2,2.1554099E2,3.7483636E2,4.7994943E2,4.5779358E1,6.453424E1,7.743603E1,1.20648315E2,0E0,2.9866943E1,4.4330816E0,1.4389099E1,1.7029944E2,8.5171616E1,0E0,9.914586E1,1.2545352E2,8.131973E1,0E0,0E0,8.07085E-2,1.813507E1,0E0,3.4826786E1,0E0,5.5156116E1,2.844078E0,6.865061E1,0E0,1.9627075E0,3.7400055E-1,8.887054E0,0E0,0E0,0E0,1.8303585E1,8.43515E0,4.297043E0,9.763118E0,2.9048347E1,0E0,0E0,1.1321487E0,1.1695915E1,7.515247E1,2.632141E-1,1.9548798E-1,1.20716095E-2,0E0,2.160492E-1,8.291901E0,0E0,8.117125E0,5.2667236E0,0E0,1.9547043E0,0E0,7.5018706E0,3.8837519E0,2.3477724E1,1.309288E0,0E0,1.0093079E0,0E0,0E0,0E0,0E0,0E0,0E0,0E0,0E0,0E0,0E0,0E0,0E0,0E0,0E0,0E0,0E0,0E0,0E0,0E0,0E0,0E0,0E0,0E0,0E0,0E0,0E0,0E0,0E0,0E0,0E0],"parents":[2147483647,0,0,1,1,2,2,3,3,4,4,5,5,6,6,7,7,9,9,10,10,11,11,12,12,13,13,15,15,16,16,17,17,20,20,21,21,23,23,25,25,26,26,27,27,29,29,30,30,31,31,35,35,36,36,37,37,38,38,39,39,42,42,43,43,44,44,45,45,46,46,47,47,49,49,50,50,52,52,53,53,55,55,57,57,58,58,59,59,60,60,62,62],"right_children":[2,4,6,8,10,12,14,16,-1,18,20,22,24,26,-1,28,30,32,-1,-1,-1,36,-1,38,-1,40,42,44,-1,46,-1,50,-1,-1,-1,52,54,56,58,60,-1,-1,-1,64,66,-1,-1,-1,-1,-1,76,-1,78,80,-1,82,-1,84,86,88,-1,-1,-1,-1,-1,-1,-1,-1,-1,-1,-1,-1,-1,-1,-1,-1,-1,-1,-1,-1,-1,-1,-1,-1,-1,-1,-1,-1,-1,-1,-1,-1,-1],"split_conditions":[4.1000687E1,9.996197E-1,9.9962616E-1,7.097024E-4,2.0124803E0,1.9998851E0,2.0015736E0,1.9999509E0,3.368782E-2,1.97406E0,3.55E1,1.1489874E-4,2.000791E0,1.9999735E0,3.0642672E-2,1.001107E0,2.015277E0,1.0151021E0,-3.133619E-2,-1.1801972E-3,2.3124035E-2,4.3013725E1,3.339032E-2,4.6208153E1,3.327966E-2,1.003274E0,4.915E2,2.9814655E-3,3.281388E-2,3.6146957E1,2.445829E-2,3.3016747E1,3.1035375E-2,1.2527345E-2,2.767138E-2,4.199823E1,9.970545E0,1.8233353E5,5.121186E1,6.2893032E1,3.217223E-2,-3.065219E-3,-2.335542E-2,3.4003853E1,9.975796E-1,-3.1081226E-2,-2.5108518E-2,2.6274709E-2,1.1529897E-2,-2.7884705E-2,4.78E2,3.204485E-2,1.9466314E-1,4.9004166E1,1.4906832E-3,1.8781853E0,-1.3475973E-4,2.53393E-1,6.905E2,1.9848397E0,-2.583909E-2,-9.9618845E-3,-2.3955816E-2,-2.5876697E-2,-1.2527956E-2,3.4394406E-2,-5.5966186E-3,-1.9329373E-2,-3.1522844E-2,-2.647115E-2,-1.8925019E-2,1.4641844E-2,2.8528716E-2,-3.0754928E-2,-2.4753578E-2,1.0077702E-2,-1.9993518E-2,-1.4051697E-2,9.623773E-3,2.4451723E-2,3.1786464E-2,-1.0789703E-2,-2.6593816E-2,-1.938704E-2,6.2314062E-3,2.4350833E-2,4.122289E-5,5.4153926E-3,-1.6316783E-2,-1.3830183E-2,-2.9983174E-2,-2.5503078E-2,-1.7269202E-2],"split_indices":[3,8,8,8,6,6,6,6,0,6,3,8,6,6,0,6,6,6,0,0,0,3,0,3,0,6,0,1,0,3,3,3,0,2147483647,2147483647,3,4,9,3,3,0,0,4,3,1,0,4,2147483647,2147483647,1,0,0,1,3,0,4,0,1,0,1,7,2147483647,2147483647,0,0,0,0,2147483647,2147483647,2147483647,2147483647,2147483647,2147483647,2147483647,2147483647,0,0,0,0,0,0,0,0,0,0,0,0,0,0,2147483647,2147483647,2147483647,2147483647],"split_type":[0,0,0,0,0,0,0,0,0,0,0,0,0,0,0,0,0,0,0,0,0,0,0,0,0,0,0,0,0,0,0,0,0,0,0,0,0,0,0,0,0,0,0,0,0,0,0,0,0,0,0,0,0,0,0,0,0,0,0,0,0,0,0,0,0,0,0,0,0,0,0,0,0,0,0,0,0,0,0,0,0,0,0,0,0,0,0,0,0,0,0,0,0],"sum_hessian":[1.8758076E3,1.032645E3,8.431626E2,6.059879E2,4.2665707E2,5.7608844E2,2.670742E2,5.0443842E2,1.0154947E2,4.150883E2,1.1568788E1,4.2969254E2,1.463959E2,2.4416501E2,2.290918E1,2.8173898E2,2.2269945E2,2.2472905E2,1.9035925E2,4.704962E0,6.8638263E0,2.5150014E2,1.781924E2,6.82353E1,7.816061E1,1.5598021E2,8.818479E1,2.574898E2,2.4249182E1,2.044286E2,1.8270845E1,2.1384814E2,1.088091E1,3.188508E0,3.6753182E0,3.3080067E1,2.1842007E2,3.7625156E1,3.0610142E1,1.3618446E2,1.9795755E1,3.1919494E0,8.4992836E1,1.1403413E2,1.4345567E2,1.3669197E2,6.7736626E1,1.5114899E1,3.155946E0,9.332612E1,1.2052202E2,1.0275366E1,2.2804703E1,2.134517E2,4.9683566E0,3.4423763E1,3.2013927E0,1.742053E1,1.3189611E1,1.18328415E2,1.7856049E1,4.4013066E0,8.059153E1,6.44498E1,4.9584328E1,2.1178358E1,1.2227731E2,6.572141E0,1.3011983E2,5.2816708E1,1.4919916E1,3.6700103E0,1.1444889E1,4.408876E1,4.923736E1,3.2135391E0,1.1730848E2,8.223295E0,1.4581408E1,1.0933287E2,1.0411884E2,5.661783E0,2.876198E1,6.454102E0,1.0966428E1,9.700145E0,3.4894676E0,9.419124E1,2.4137177E1,5.6937594E0,1.2162289E1,6.3162E1,1.7429533E1],"tree_param":{"num_deleted":"18","num_feature":"10","num_nodes":"93","size_leaf_vector":"0"}},{"base_weights":[5.7411026E-3,-7.561342E-1,6.58724E-1,-8.5019743E-1,1.3072063E0,1.1226296E0,-3.2679492E-1,-3.7972552E-1,-1.4663979E0,1.5576289E0,5.184448E-1,8.317855E-1,1.6511524E0,-4.63726E-1,1.4261011E0,-6.462433E-1,1.6354841E0,-1.5349634E0,-1.2740816E0,-3.4360015E-1,9.847611E-1,3.4309736E-1,1.3535749E0,-3.1819794E-2,-1.1965232E0,-2.1497597E-1,-1.2265909E0,-2.646418E-1,-1.3314197E0,7.6976055E-1,-4.420253E-1,9.902154E-1,1.525119E0,-2.5524995E-1,1.5910851E0,-1.4297092E0,-7.3493457E-1,-5.294302E-1,1.654585E0,-1.2536546E0,-1.4012264E-1,-1.156287E0,-1.4454007E0,5.7479876E-1,1.6352489E0,-1.0729768E0,1.3706213E0,2.4279895E-1,1.268096E0,1.5449513E0,5.589175E-1,-2.5480802E-3,-1.0874901E0,-1.4931141E0,-1.0567482E0,-5.06451E-1,-1.2097746E0,-8.2209855E-3,-1.0865226E0,-1.4352095E0,-1.0516039E0,-1.215206E0,-5.876061E-1,7.186284E-1,-2.0698723E-1,-1.1357764E0,4.3478187E-2,8.712924E-1,1.562891E0,6.4035493E-1,-9.82219E-1,1.4290677E0,4.2277557E-1,1.3580917E0,1.6411042E0,-5.553964E-1,6.649239E-1,-3.6641976E-1,-1.3556285E0,-6.250212E-1,-1.4730734E0,-1.0767979E-1,-8.6842424E-1],"categories":[],"categories_nodes":[],"categories_segments":[],"categories_sizes":[],"default_left":[true,true,true,true,true,true,true,true,true,false,true,true,false,true,false,true,false,false,true,false,false,true,true,true,true,true,true,false,true,true,true,true,true,true,false,true,true,true,false,true,false,true,true,true,false,true,true,true,true,true,false,true,true,false,true,true,false,false,false,false,false,true,true,false,false,false,false,true,true,false,false,false,false,true,true,false,false,false,false,false,false,false,false],"id":12,"left_children":[1,3,5,7,9,11,13,15,17,-1,19,21,-1,23,-1,25,-1,-1,27,-1,-1,29,31,33,35,37,39,-1,-1,43,45,47,49,51,-1,53,55,57,-1,59,-1,-1,-1,63,-1,65,-1,69,71,-1,-1,75,77,-1,79,81,-1,-1,-1,-1,-1,-1,-1,-1,-1,-1,-1,-1,-1,-1,-1,-1,-1,-1,-1,-1,-1,-1,-1,-1,-1,-1,-1],"loss_changes":[9.2700195E2,1.6801901E2,4.590982E2,2.380597E2,6.6764526E0,1.03532776E2,7.792978E1,2.5245874E2,2.7387085E0,0E0,4.611237E0,1.1230017E2,0E0,9.4705025E1,0E0,1.0338544E2,0E0,0E0,5.403717E0,0E0,0E0,7.728464E1,1.1799622E1,6.907185E1,1.0894608E1,1.4125812E2,5.0092773E0,0E0,2.0222473E-1,2.4233337E1,9.469311E1,1.4506958E1,1.8805237E0,3.5184654E1,0E0,1.4071655E-1,3.6516895E0,5.9563404E1,0E0,4.797455E0,0E0,6.932411E-1,0E0,1.4013172E1,0E0,4.3279953E0,7.009926E-1,1.0646432E1,6.439163E0,2.8216553E-1,0E0,4.809916E1,7.037567E0,0E0,1.5922842E0,3.9851923E0,0E0,0E0,0E0,0E0,0E0,0E0,0E0,0E0,0E0,0E0,0E0,0E0,0E0,0E0,0E0,0E0,0E0,0E0,0E0,0E0,0E0,0E0,0E0,0E0,0E0,0E0,0E0],"parents":[2147483647,0,0,1,1,2,2,3,3,4,4,5,5,6,6,7,7,8,8,10,10,11,11,13,13,15,15,18,18,21,21,22,22,23,23,24,24,25,25,26,26,28,28,29,29,30,30,31,31,32,32,33,33,35,35,36,36,37,37,39,39,41,41,43,43,45,45,46,46,47,47,48,48,49,49,51,51,52,52,54,54,55,55],"right_children":[2,4,6,8,10,12,14,16,18,-1,20,22,-1,24,-1,26,-1,-1,28,-1,-1,30,32,34,36,38,40,-1,-1,44,46,48,50,52,-1,54,56,58,-1,60,-1,-1,-1,64,-1,66,-1,70,72,-1,-1,76,78,-1,80,82,-1,-1,-1,-1,-1,-1,-1,-1,-1,-1,-1,-1,-1,-1,-1,-1,-1,-1,-1,-1,-1,-1,-1,-1,-1,-1,-1],"split_conditions":[3.900677E1,2.0243604E0,9.9989974E-1,1.9996197E0,9.731052E-1,1.1489874E-4,2.0163698E0,1.0003681E0,1.0829095E5,3.1152576E-2,3.15E1,4.6005463E1,3.302305E-2,1.9972429E0,2.852202E-2,9.9463236E-1,3.270968E-2,-3.0699266E-2,1.1094969E5,-6.872003E-3,1.9695222E-2,1.9991143E0,4.900435E1,1.003274E0,1.0116907E5,6.797864E-4,1.8084338E5,-5.2928356E-3,-2.6628394E-2,1.001107E0,2.0234964E0,3.1003808E-3,6.726872E1,1.9848397E0,3.18217E-2,4.303197E4,1.396088E5,9.938885E-1,3.3091698E-2,1.43252155E-2,-2.8024528E-3,-2.3125738E-2,-2.8908014E-2,1.9796467E0,3.2704975E-2,1.5361755E5,2.7412426E-2,1.8929939E0,1.9972401E0,3.0899025E-2,1.117835E-2,1.084273E-4,8.1697625E4,-2.9862281E-2,4.5E0,7.1865594E-1,-2.4195492E-2,-1.644197E-4,-2.173045E-2,-2.8704189E-2,-2.1032078E-2,-2.430412E-2,-1.1752121E-2,1.4372568E-2,-4.1397447E-3,-2.2715528E-2,8.695637E-4,1.7425848E-2,3.125782E-2,1.2807098E-2,-1.964438E-2,2.8581355E-2,8.455511E-3,2.7161833E-2,3.2822084E-2,-1.1107927E-2,1.3298478E-2,-7.3283953E-3,-2.711257E-2,-1.2500424E-2,-2.9461466E-2,-2.1535957E-3,-1.7368484E-2],"split_indices":[3,6,8,6,8,8,6,6,5,0,3,3,0,6,0,8,0,0,5,0,0,6,3,6,5,8,5,0,2,6,6,1,3,1,0,5,5,2,0,1,0,2147483647,2147483647,1,0,5,5,6,1,3,0,1,5,0,4,2,0,0,0,0,0,2147483647,2147483647,0,0,0,0,2147483647,2147483647,0,0,0,0,2147483647,2147483647,0,0,0,0,0,0,0,0],"split_type":[0,0,0,0,0,0,0,0,0,0,0,0,0,0,0,0,0,0,0,0,0,0,0,0,0,0,0,0,0,0,0,0,0,0,0,0,0,0,0,0,0,0,0,0,0,0,0,0,0,0,0,0,0,0,0,0,0,0,0,0,0,0,0,0,0,0,0,0,0,0,0,0,0,0,0,0,0,0,0,0,0,0,0],"sum_hessian":[1.8613507E3,8.589745E2,1.0023763E3,8.220853E2,3.6889122E1,6.814592E2,3.2091708E2,4.6708215E2,3.5500317E2,2.7259705E1,9.629417E0,4.4122726E2,2.4023195E2,2.9834656E2,2.2570509E1,4.1312448E2,5.395768E1,2.5655392E2,9.844925E1,3.4727528E0,6.1566644E0,2.2869643E2,2.1253084E2,1.8836739E2,1.0997918E2,2.3778922E2,1.7533527E2,5.5933676E0,9.285588E1,1.4818634E2,8.0510086E1,7.0330734E1,1.422001E2,1.6631326E2,2.2054123E1,7.167363E1,3.8305553E1,2.0416595E2,3.3623257E1,1.709237E2,4.411563E0,4.1001408E1,5.1854473E1,1.2230074E2,2.5885601E1,6.00246E1,2.0485487E1,1.956918E1,5.0761555E1,1.3875305E2,3.4470434E0,1.2834544E2,3.7967823E1,5.86923E1,1.298133E1,2.7256731E1,1.1048824E1,1.060043E2,9.816166E1,8.6813354E1,8.411035E1,3.6122036E1,4.879371E0,1.033649E2,1.893584E1,5.6811695E1,3.2129073E0,7.2329535E0,1.3252533E1,1.5134755E1,4.4344244E0,4.206137E1,8.700185E0,5.2279522E1,8.647353E1,7.029226E1,5.805319E1,1.0933173E1,2.7034649E1,7.600713E0,5.380617E0,1.3586508E1,1.3670223E1],"tree_param":{"num_deleted":"8","num_feature":"10","num_nodes":"83","size_leaf_vector":"0"}},{"base_weights":[-9.1268256E-4,-7.2483104E-1,6.3080245E-1,-8.226957E-1,1.2729748E0,1.1099421E0,-3.6339402E-1,-3.7828764E-1,-1.4348708E0,1.5862484E0,8.0975765E-1,8.2367903E-1,1.6299123E0,-5.0140905E-1,1.3403411E0,-6.2408483E-1,1.6124289E0,-1.5293044E0,-1.2828946E0,1.2373789E-1,1.2270153E0,3.5592917E-1,1.3031963E0,-4.0826283E-2,-1.237982E0,8.768962E-1,1.561752E0,-2.3603755E-1,-1.1688566E0,-1.0784993E0,-1.4886564E0,-8.7546545E-1,1.1569923E0,1.3977406E0,5.921189E-1,7.626496E-1,-3.8183314E-1,9.8689E-1,1.4499136E0,-2.4008246E-1,1.5636252E0,-1.4467831E0,-6.991831E-1,1.1854577E0,1.4662853E-1,-5.177595E-1,1.6379479E0,-1.2904342E0,-8.597964E-1,-1.2979752E0,-7.417968E-1,-1.5245962E0,-6.267162E-1,1.1154926E0,1.1019919E-1,-1.0952207E0,1.5001304E0,3.1593955E-1,1.2338644E0,1.4818898E0,1.08404845E-1,-7.757229E-2,-1.3057548E0,-1.510278E0,-1.1098472E0,2.7091768E-1,-9.636497E-1,2.0091351E-2,-1.0456346E0,-1.3191473E0,-1.3528198E-1,-9.541927E-1,3.931389E-1,-4.6077922E-1,-1.4406426E0,-5.324217E-1,-1.3584539E0,-7.745494E-1,-1.5503674E0,7.2201157E-1,1.6466671E0,-5.3550992E-2,1.4033337E0,-1.2947825E0,-8.075676E-1,6.596167E-1,-4.5202932E-1,1.4493335E0,2.686851E-1,1.5506085E0,1.2168173E0,3.2037243E-1,-5.1108634E-1,-9.0614873E-1,-1.4669214E0,-5.2241707E-1,-1.3382378E0,7.160305E-1,-2.6039472E-1,-4.9929014E-1,-1.3295375E0],"categories":[],"categories_nodes":[],"categories_segments":[],"categories_sizes":[],"default_left":[true,true,true,true,true,true,true,true,true,false,true,true,false,true,true,true,false,false,true,true,true,true,true,true,true,true,false,true,true,true,true,false,false,true,true,true,true,true,true,true,false,true,true,false,false,true,false,true,true,true,true,true,true,true,true,true,false,true,true,true,false,true,true,false,true,true,true,false,false,false,false,false,false,false,false,false,false,true,true,false,false,false,false,false,false,false,false,false,false,true,true,false,false,true,true,false,false,false,false,false,false],"id":13,"left_children":[1,3,5,7,9,11,13,15,17,-1,19,21,-1,23,25,27,-1,-1,29,31,-1,35,37,39,41,43,-1,45,47,49,-1,-1,-1,-1,-1,53,55,57,59,61,-1,63,65,-1,-1,67,-1,69,71,73,75,-1,-1,79,81,83,-1,85,87,-1,-1,91,-1,-1,95,97,99,-1,-1,-1,-1,-1,-1,-1,-1,-1,-1,-1,-1,-1,-1,-1,-1,-1,-1,-1,-1,-1,-1,-1,-1,-1,-1,-1,-1,-1,-1,-1,-1,-1,-1],"loss_changes":[8.5528064E2,1.714418E2,4.761543E2,2.2565161E2,4.6784134E0,9.900769E1,7.722119E1,2.3738324E2,3.0517578E0,0E0,5.1783733E0,9.75134E1,0E0,1.0236241E2,1.1616936E0,9.077484E1,0E0,0E0,4.286194E0,9.4319515E0,4.1524696E-1,6.705561E1,8.561707E0,6.0085278E1,1.2050751E1,2.1370401E0,0E0,1.343066E2,5.6133423E0,4.498802E0,1.1256714E0,0E0,0E0,0E0,0E0,3.2973244E1,1.0869641E2,1.1435135E1,6.0577393E0,2.8821E1,0E0,9.402466E-2,9.077353E0,0E0,0E0,6.2628742E1,0E0,4.0143433E0,6.7037888E0,4.5209656E0,3.3436127E0,3.2287598E-2,0E0,1.8289513E1,1.0994825E1,2.3067017E0,0E0,5.720474E0,1.0386612E1,6.908264E-1,0E0,2.5345716E1,8.984375E-2,0E0,1.5671844E0,2.1119478E0,3.961237E0,0E0,0E0,0E0,0E0,0E0,0E0,0E0,0E0,0E0,0E0,0E0,0E0,0E0,0E0,0E0,0E0,0E0,0E0,0E0,0E0,0E0,0E0,0E0,0E0,0E0,0E0,0E0,0E0,0E0,0E0,0E0,0E0,0E0,0E0],"parents":[2147483647,0,0,1,1,2,2,3,3,4,4,5,5,6,6,7,7,8,8,10,10,11,11,13,13,14,14,15,15,18,18,19,19,20,20,21,21,22,22,23,23,24,24,25,25,27,27,28,28,29,29,30,30,35,35,36,36,37,37,38,38,39,39,41,41,42,42,45,45,47,47,48,48,49,49,50,50,51,51,53,53,54,54,55,55,57,57,58,58,59,59,61,61,62,62,64,64,65,65,66,66],"right_children":[2,4,6,8,10,12,14,16,18,-1,20,22,-1,24,26,28,-1,-1,30,32,-1,36,38,40,42,44,-1,46,48,50,-1,-1,-1,-1,-1,54,56,58,60,62,-1,64,66,-1,-1,68,-1,70,72,74,76,-1,-1,80,82,84,-1,86,88,-1,-1,92,-1,-1,96,98,100,-1,-1,-1,-1,-1,-1,-1,-1,-1,-1,-1,-1,-1,-1,-1,-1,-1,-1,-1,-1,-1,-1,-1,-1,-1,-1,-1,-1,-1,-1,-1,-1,-1,-1],"split_conditions":[3.900149E1,2.011789E0,9.9947274E-1,1.9999509E0,2.989983E0,1.094587E-3,2.0015736E0,1.0011728E0,7.320282E4,3.1724967E-2,2.319408E4,4.6005463E1,3.2598246E-2,1.9965656E0,2.2150715E4,9.983214E-1,3.224858E-2,-3.0586086E-2,9.186632E-1,1.3655961E5,2.4540305E-2,1.9991143E0,4.9004166E1,1.005819E0,1.04646125E5,9.0303963E-1,3.123504E-2,7.097024E-4,3.505208E1,3.4221954E1,-2.9773127E-2,-1.750931E-2,2.3139846E-2,2.7954811E-2,1.1842378E-2,9.963983E-1,2.0031548E0,3.1003808E-3,6.7697395E1,6.1565285E1,3.1272504E-2,5.1861508E4,1.1627991E5,2.3709154E-2,2.9325704E-3,9.938885E-1,3.275896E-2,1.7639252E5,1.8560005E5,2.4698967E1,1.5832169E5,-3.0491924E-2,-1.2534324E-2,3.735807E-3,1.0277731E0,1.884345E3,3.0002607E-2,6.9275656E0,1.9972401E0,2.9637797E-2,2.1680968E-3,9.984622E-1,-2.6115095E-2,-3.0205559E-2,8.56882E-1,1.0688391E5,9.0016294E-1,4.01827E-4,-2.0912692E-2,-2.6382945E-2,-2.7056395E-3,-1.9083854E-2,7.862777E-3,-9.215584E-3,-2.8812852E-2,-1.0648434E-2,-2.7169077E-2,-1.5490988E-2,-3.1007346E-2,1.4440231E-2,3.2933343E-2,-1.0710198E-3,2.8066672E-2,-2.589565E-2,-1.6151352E-2,1.3192334E-2,-9.040586E-3,2.898667E-2,5.373702E-3,3.101217E-2,2.4336345E-2,6.4074486E-3,-1.0221726E-2,-1.8122975E-2,-2.9338429E-2,-1.0448341E-2,-2.6764754E-2,1.4320609E-2,-5.2078944E-3,-9.985803E-3,-2.659075E-2],"split_indices":[3,6,8,6,6,8,6,6,5,0,5,3,0,6,5,8,0,0,8,9,9,6,3,6,5,2,0,8,3,3,5,0,0,2147483647,2147483647,2,6,1,3,3,0,5,5,0,0,2,0,5,9,3,9,2147483647,2147483647,2,6,5,0,4,1,6,0,2,3,0,1,9,2,0,0,0,0,0,0,0,0,0,0,2147483647,2147483647,0,0,0,0,0,0,0,0,0,0,2147483647,2147483647,0,0,2147483647,2147483647,0,0,0,0,0,0],"split_type":[0,0,0,0,0,0,0,0,0,0,0,0,0,0,0,0,0,0,0,0,0,0,0,0,0,0,0,0,0,0,0,0,0,0,0,0,0,0,0,0,0,0,0,0,0,0,0,0,0,0,0,0,0,0,0,0,0,0,0,0,0,0,0,0,0,0,0,0,0,0,0,0,0,0,0,0,0,0,0,0,0,0,0,0,0,0,0,0,0,0,0,0,0,0,0,0,0,0,0,0,0],"sum_hessian":[1.8682421E3,8.7051825E2,9.977238E2,8.3042706E2,4.0091164E1,6.731782E2,3.2454556E2,4.8207968E2,3.483474E2,2.2470179E1,1.7620987E1,4.358246E2,2.3735364E2,3.0087793E2,2.366762E1,4.2970923E2,5.2370434E1,2.0925787E2,1.3908954E2,7.1545806E0,1.0466406E1,2.2150128E2,2.143233E2,1.857703E2,1.1510766E2,9.255344E0,1.4412275E1,2.5178975E2,1.779195E2,7.29076E1,6.618194E1,3.7148576E0,3.4397228E0,7.301491E0,3.1649156E0,1.4276353E2,7.873774E1,7.0360405E1,1.439629E2,1.6600461E2,1.976568E1,8.174412E1,3.3363537E1,6.0680704E0,3.187274E0,2.1951335E2,3.2276398E1,1.25410385E2,5.250911E1,4.2408875E1,3.0498728E1,6.279482E1,3.3871174E0,9.219506E1,5.0568478E1,5.7398132E1,2.1339611E1,1.9544231E1,5.0816174E1,1.4050908E2,3.4538283E0,1.4497012E2,2.103449E1,6.585203E1,1.5892091E1,7.141845E0,2.6221691E1,1.09205765E2,1.1030758E2,1.22230194E2,3.1801906E0,4.905196E1,3.4571476E0,6.790549E0,3.5618324E1,2.4159271E1,6.339456E0,3.1175075E0,5.967731E1,5.4317368E1,3.7877693E1,4.5735554E1,4.832925E0,3.1820896E1,2.5577236E1,1.3599395E1,5.944836E0,4.1132114E1,9.684059E0,1.0773072E2,3.2778355E1,7.572201E1,6.924811E1,7.9486284E0,1.3085862E1,5.3693304E0,1.052276E1,3.6969886E0,3.4448566E0,1.2597901E1,1.362379E1],"tree_param":{"num_deleted":"10","num_feature":"10","num_nodes":"101","size_leaf_vector":"0"}},{"base_weights":[1.2982887E-2,4.6313363E-1,-7.6182806E-1,5.4005098E-2,1.6198792E0,-4.1613466E-1,-1.1004479E0,-5.468225E-1,4.45877E-1,-6.9189054E-1,1.6476816E0,-1.1158574E0,-3.4913257E-2,-1.7933424E-1,-9.1798073E-1,8.858108E-1,-6.1815345E-1,-8.997194E-1,-4.3282878E-1,-1.2530373E0,-9.7918075E-1,-4.8001018E-1,1.6275259E0,-1.0205353E0,-2.9318112E-1,1.6535678E0,6.247995E-1,-2.6888287E-1,-9.305555E-1,-5.8332163E-1,-1.0596018E0,-9.262278E-1,-1.6784336E-1,-1.2857101E0,-8.775097E-1,-6.236171E-1,-1.3372531E0,-5.2021956E-1,3.557973E-1,-1.0611955E0,1.1032921E-1,3.8611156E-1,-6.1101997E-1,3.6084014E-1,1.6633883E0,-4.9229833E-1,1.5367914E0,-9.906316E-1,3.0154276E-1,-8.674807E-1,1.606012E0,-1.2149879E0,-6.458461E-1,-1.0273954E0,1.9187067E-1,1.6082723E0,-3.4343508E-1,-1.1674013E0,-1.4013038E0,-2.8639358E-2,-1.213082E0,-7.283206E-1,1.5200995E0,-6.716626E-1,-1.3586208E0,-7.946617E-1,-4.0139547E-1,-6.05981E-2,6.8958837E-1,-9.3419516E-1,-1.2733302E0,-5.852203E-3,7.9933804E-1,-1.0774759E0,-6.549201E-2,-1.0319648E0,4.7291872E-1,-2.9837123E-1,-1.0372771E0,-1.108763E0,-4.989675E-1,-5.3991634E-1,-1.0852494E0,-8.763151E-1,-1.2768703E0,8.094549E-1,-8.683895E-1,-1.1056054E0,-3.8597012E-1,4.425323E-1,-5.819861E-1,-8.656075E-1,-1.2783972E0,-3.2472995E-1,-8.869003E-1],"categories":[],"categories_nodes":[],"categories_segments":[],"categories_sizes":[],"default_left":[true,true,true,true,false,true,true,true,true,true,false,true,false,true,true,true,true,true,true,true,true,true,false,true,true,false,true,true,true,true,true,true,true,true,true,true,true,true,true,true,false,true,true,true,false,true,false,true,false,true,false,true,true,true,false,false,true,true,false,false,false,true,false,true,true,false,false,true,true,false,false,true,true,false,false,false,false,false,false,false,false,false,false,true,true,false,false,false,false,false,false,false,false,false,false],"id":14,"left_children":[1,3,5,7,-1,9,11,13,15,17,-1,19,-1,21,23,25,27,29,31,33,35,37,-1,39,41,-1,43,45,47,49,51,53,55,57,59,61,-1,65,-1,69,-1,-1,73,75,-1,77,-1,79,-1,81,-1,-1,85,87,-1,-1,89,91,-1,-1,-1,93,-1,-1,-1,-1,-1,-1,-1,-1,-1,-1,-1,-1,-1,-1,-1,-1,-1,-1,-1,-1,-1,-1,-1,-1,-1,-1,-1,-1,-1,-1,-1,-1,-1],"loss_changes":[6.3661993E2,5.4628735E2,7.806009E1,2.0128937E2,0E0,1.909497E2,5.5147095E0,4.587245E1,2.4272665E2,1.5488907E1,0E0,5.0237427E0,0E0,9.359696E1,1.0445145E1,7.2398315E1,1.6326862E1,7.6128693E0,1.7260014E1,8.6938477E-1,2.1010422E1,5.133499E0,0E0,6.721588E0,5.6433964E0,0E0,7.481017E1,3.0261036E1,6.2046967E0,3.675759E1,6.0858917E0,5.436741E0,2.796032E1,3.8305664E-1,4.5745735E0,2.0850662E1,2.9081726E-1,4.275486E0,1.0636752E0,2.5484161E0,0E0,1.396991E0,4.3696976E0,3.4925766E1,0E0,6.6490154E0,0E0,3.879097E0,0E0,3.0494804E0,0E0,4.8548126E-1,1.08435545E1,1.7120857E0,0E0,0E0,1.5406968E1,1.5380173E0,0E0,0E0,0E0,5.1228065E0,0E0,0E0,0E0,0E0,0E0,0E0,0E0,0E0,0E0,0E0,0E0,0E0,0E0,0E0,0E0,0E0,0E0,0E0,0E0,0E0,0E0,0E0,0E0,0E0,0E0,0E0,0E0,0E0,0E0,0E0,0E0,0E0,0E0],"parents":[2147483647,0,0,1,1,2,2,3,3,5,5,6,6,7,7,8,8,9,9,11,11,13,13,14,14,15,15,16,16,17,17,18,18,19,19,20,20,21,21,23,23,24,24,26,26,27,27,28,28,29,29,30,30,31,31,32,32,33,33,34,34,35,35,36,36,37,37,38,38,39,39,41,41,42,42,43,43,45,45,47,47,49,49,51,51,52,52,53,53,56,56,57,57,61,61],"right_children":[2,4,6,8,-1,10,12,14,16,18,-1,20,-1,22,24,26,28,30,32,34,36,38,-1,40,42,-1,44,46,48,50,52,54,56,58,60,62,-1,66,-1,70,-1,-1,74,76,-1,78,-1,80,-1,82,-1,-1,86,88,-1,-1,90,92,-1,-1,-1,94,-1,-1,-1,-1,-1,-1,-1,-1,-1,-1,-1,-1,-1,-1,-1,-1,-1,-1,-1,-1,-1,-1,-1,-1,-1,-1,-1,-1,-1,-1,-1,-1,-1],"split_conditions":[9.9989974E-1,1.1489874E-4,9.9994576E-1,1.1069702E-3,3.2397583E-2,4.5744746E-4,1.8181316E5,9.9204683E-1,1.9982285E0,1.0427705E5,3.295363E-2,1.43252155E-2,-6.982651E-4,6.094145E-3,1.4699945E5,9.984071E-1,9.782139E-1,9.560586E-1,6.7148153E-3,1.7773531E5,1.9999735E0,1.629883E5,3.2550517E-2,1.9556078E5,1.5444773E5,3.3071354E-2,1.0000491E0,8.24601E-3,1.7123506E5,1.248036E-2,1.4352181E5,1.684674E5,9.9594355E-1,7.456272E4,6.19E2,1.0764515E0,-2.674506E-2,4.166783E-3,7.1159457E-3,9.432253E4,2.2065842E-3,7.722231E-3,1.6526981E5,9.108656E4,3.3267763E-2,7.648446E0,3.0735828E-2,1.4831628E5,6.0308552E-3,6.295E2,3.212024E-2,-2.4299758E-2,1.4489164E5,8.5E0,3.8374134E-3,3.2165445E-2,1.1432594E5,9.056337E-1,-2.8026074E-2,-5.7278713E-4,-2.4261639E-2,8.023964E-1,3.040199E-2,-1.3433252E-2,-2.7172415E-2,-1.5893234E-2,-8.027909E-3,-1.211962E-3,1.3791767E-2,-1.8683903E-2,-2.5466604E-2,-1.1704405E-4,1.5986761E-2,-2.1549517E-2,-1.3098402E-3,-2.0639295E-2,9.458374E-3,-5.9674243E-3,-2.0745542E-2,-2.217526E-2,-9.97935E-3,-1.0798327E-2,-2.1704989E-2,-1.7526302E-2,-2.5537405E-2,1.6189098E-2,-1.736779E-2,-2.2112107E-2,-7.719402E-3,8.850646E-3,-1.1639723E-2,-1.731215E-2,-2.5567943E-2,-6.494599E-3,-1.7738005E-2],"split_indices":[8,8,2,1,0,2,5,2,1,5,0,1,0,2,5,1,2,7,1,9,1,5,0,9,5,0,1,2,5,7,9,5,1,5,0,1,0,7,9,5,0,9,5,5,0,4,0,9,0,0,0,9,9,4,0,0,5,7,0,0,0,7,0,2147483647,2147483647,0,0,2147483647,2147483647,0,0,2147483647,2147483647,0,0,0,0,0,0,0,0,0,0,2147483647,2147483647,0,0,0,0,0,0,0,0,0,0],"split_type":[0,0,0,0,0,0,0,0,0,0,0,0,0,0,0,0,0,0,0,0,0,0,0,0,0,0,0,0,0,0,0,0,0,0,0,0,0,0,0,0,0,0,0,0,0,0,0,0,0,0,0,0,0,0,0,0,0,0,0,0,0,0,0,0,0,0,0,0,0,0,0,0,0,0,0,0,0,0,0,0,0,0,0,0,0,0,0,0,0,0,0,0,0,0,0],"sum_hessian":[1.823256E3,1.1534976E3,6.6975836E2,8.528872E2,3.0061038E2,3.3252054E2,3.3723782E2,3.3652435E2,5.1636285E2,2.939141E2,3.860645E1,3.3238373E2,4.854089E0,1.6984346E2,1.666809E2,3.6543686E2,1.5092596E2,1.6171077E2,1.3220332E2,1.6180995E2,1.7057379E2,1.4624197E2,2.360149E1,1.4263535E2,2.4045553E1,9.136227E1,2.740746E2,7.213668E1,7.878929E1,5.584509E1,1.0586568E2,4.532096E1,8.688237E1,1.466288E2,1.5181141E1,8.696233E1,8.361146E1,1.398897E2,6.3522863E0,1.3774435E2,4.890981E0,7.596127E0,1.6449427E1,2.1960818E2,5.446641E1,6.4841255E1,7.2954264E0,7.5313065E1,3.476222E0,4.9963917E1,5.881171E0,7.5554634E1,3.0311043E1,4.1634884E1,3.686078E0,7.0825906E0,7.9799774E1,7.794855E1,6.868026E1,4.608565E0,1.0572576E1,8.354221E1,3.420117E0,3.6095543E0,8.00019E1,4.0548676E1,9.934101E1,3.1905792E0,3.161707E0,8.954157E1,4.820279E1,4.404295E0,3.191832E0,8.341707E0,8.107719E0,1.5744401E1,2.0386378E2,4.8964905E1,1.58763485E1,5.9711216E1,1.5601851E1,2.1341572E1,2.8622347E1,1.4014794E1,6.1539837E1,3.670549E0,2.6640493E1,3.646498E1,5.169901E0,1.8381649E1,6.141813E1,2.3325613E1,5.4622932E1,2.442571E1,5.9116505E1],"tree_param":{"num_deleted":"8","num_feature":"10","num_nodes":"95","size_leaf_vector":"0"}},{"base_weights":[-4.211602E-3,-7.207895E-1,6.213666E-1,-3.0547115E-1,-1.1521293E0,1.0793822E0,-3.0534893E-1,-7.3763007E-1,1.6418563E0,-9.5483446E-1,-1.3691794E0,7.9936117E-1,1.5902556E0,1.5438859E-1,-8.2730085E-1,-3.9251146E-1,-1.1593078E0,-1.1409808E0,1.5503173E0,-1.382624E0,-3.9647976E-1,3.5486916E-1,1.2559079E0,-2.0113672E-1,1.6020644E0,-7.2369224E-1,-1.3152642E0,-6.769053E-1,1.5901293E0,-1.1960286E0,5.1474077E-1,-1.3268391E0,-8.8801247E-1,-1.4358593E0,-1.1694624E0,6.81523E-1,-2.3465146E-1,1.0169073E0,1.428485E0,-6.506324E-2,-1.1269176E0,-1.0009241E0,-4.8733488E-1,-1.0338805E0,-3.5336617E-1,-1.3031446E0,-9.348104E-1,-1.3499138E0,-3.613875E-1,6.5737927E-1,-9.5465946E-1,-7.2763914E-1,-1.4491632E0,-6.591107E-1,-1.4145184E0,2.649182E-1,1.6168442E0,-7.4776584E-1,1.4834979E-2,4.596777E-1,1.2214239E0,1.4771038E0,2.8930232E-1,-8.181563E-1,1.10257424E-1,-2.1922168E-1,-1.3086603E0,-8.989965E-1,-1.4473003E0,-1.4200808E-1,-8.006344E-1,-1.2812722E0,-6.2126946E-1,1.5797471E0,-5.591E-1,-1.4272966E0,-1.0578917E0,-1.3086857E0,-7.284644E-1,-1.5311432E0,-1.2192703E0,-1.0086207E0,-2.5655078E-2,-1.3674539E0,-2.4879351E-1,-1.5565284E0,-6.855991E-1,-1.7740698E-1,5.553935E-1,-1.0910358E0,-5.1609814E-1,-5.217193E-1,3.0959463E-1,8.0755556E-1,-5.005798E-2,1.3584068E0,5.5588526E-1,9.5600754E-1,1.511957E0,8.353761E-2,-9.760761E-1,-2.4183509E-1,3.8593584E-1,-1.1175013E0,-6.7197335E-1,1.9789264E-1,-6.0225385E-1,-4.845052E-1,-1.2702867E0],"categories":[],"categories_nodes":[],"categories_segments":[],"categories_sizes":[],"default_left":[true,true,true,true,true,true,true,true,false,true,true,true,false,true,true,true,true,true,false,true,false,true,true,true,false,true,false,true,false,true,false,true,true,true,true,true,true,true,true,true,true,true,true,true,true,true,true,true,false,false,true,true,true,true,true,true,false,true,true,true,true,true,false,true,true,false,false,true,false,true,true,false,false,false,false,false,false,false,false,true,true,false,false,false,false,false,false,false,false,true,true,false,false,false,false,false,false,true,true,false,false,false,false,false,false,false,false,false,false],"id":15,"left_children":[1,3,5,7,9,11,13,15,-1,17,19,21,-1,23,25,27,29,31,-1,33,-1,35,37,39,-1,41,-1,43,-1,45,-1,47,49,-1,53,55,57,59,61,63,65,67,69,71,73,75,77,-1,-1,-1,81,-1,-1,83,85,87,-1,-1,91,93,95,-1,-1,99,101,-1,-1,103,-1,105,107,-1,-1,-1,-1,-1,-1,-1,-1,-1,-1,-1,-1,-1,-1,-1,-1,-1,-1,-1,-1,-1,-1,-1,-1,-1,-1,-1,-1,-1,-1,-1,-1,-1,-1,-1,-1,-1,-1],"loss_changes":[8.3182904E2,1.5458926E2,4.2084088E2,3.731737E2,1.684552E1,9.361005E1,7.894802E1,5.2286087E1,0E0,1.0686131E2,2.0613708E0,8.69025E1,0E0,9.0642746E1,6.8331833E0,1.1430269E2,1.0611084E1,8.711731E0,0E0,5.4974365E-1,0E0,4.242679E1,7.2891846E0,1.7786766E1,0E0,7.9806976E0,0E0,1.9998749E1,0E0,3.2422638E0,0E0,2.1684418E0,1.01150055E1,3.8500977E-1,4.650753E0,5.470395E1,1.012439E1,9.9618225E0,6.25235E0,1.6550581E1,2.7001476E0,1.3617783E0,7.644781E0,7.707855E0,3.8271877E1,1.8551025E0,2.8960953E0,8.8168335E-1,0E0,0E0,4.4213943E0,0E0,0E0,4.413095E0,1.9644775E0,1.2829267E1,0E0,1.4938002E0,8.72339E0,4.7209725E0,5.3480453E0,6.5086365E-1,0E0,3.4507685E0,9.994645E0,0E0,0E0,1.7436028E0,0E0,5.6457586E0,4.9349003E0,0E0,0E0,0E0,0E0,0E0,0E0,0E0,0E0,0E0,0E0,0E0,0E0,0E0,0E0,0E0,0E0,0E0,0E0,0E0,0E0,0E0,0E0,0E0,0E0,0E0,0E0,0E0,0E0,0E0,0E0,0E0,0E0,0E0,0E0,0E0,0E0,0E0,0E0],"parents":[2147483647,0,0,1,1,2,2,3,3,4,4,5,5,6,6,7,7,9,9,10,10,11,11,13,13,14,14,15,15,16,16,17,17,19,19,21,21,22,22,23,23,25,25,27,27,29,29,31,31,32,32,33,33,34,34,35,35,36,36,37,37,38,38,39,39,40,40,41,41,42,42,43,43,44,44,45,45,46,46,47,47,50,50,53,53,54,54,55,55,57,57,58,58,59,59,60,60,61,61,63,63,64,64,67,67,69,69,70,70],"right_children":[2,4,6,8,10,12,14,16,-1,18,20,22,-1,24,26,28,30,32,-1,34,-1,36,38,40,-1,42,-1,44,-1,46,-1,48,50,-1,54,56,58,60,62,64,66,68,70,72,74,76,78,-1,-1,-1,82,-1,-1,84,86,88,-1,-1,92,94,96,-1,-1,100,102,-1,-1,104,-1,106,108,-1,-1,-1,-1,-1,-1,-1,-1,-1,-1,-1,-1,-1,-1,-1,-1,-1,-1,-1,-1,-1,-1,-1,-1,-1,-1,-1,-1,-1,-1,-1,-1,-1,-1,-1,-1,-1,-1],"split_conditions":[3.900677E1,9.996319E-1,9.9989974E-1,3.802751E-4,9.988271E-1,1.3863986E-3,9.9994576E-1,9.9798906E-1,3.2837126E-2,6.797864E-4,1.8173044E5,4.6005463E1,3.1805113E-2,4.5744746E-4,6.1793205E1,3.7653546E-3,1.7934567E5,1.0827361E5,3.1006346E-2,3.6172997E1,-7.929595E-3,9.956082E-1,5.0007896E1,6.15E1,3.2041285E-2,4.4044342E1,-2.6305284E-2,4.0468057E-3,3.1802583E-2,3.5295876E1,1.02948155E-2,1.9725475E5,1.1002511E5,-2.8717186E-2,7.601766E4,6.094145E-3,7.2929234E4,3.1003808E-3,6.7697044E1,4.1028435E1,5.815E2,8.63026E0,6.45E2,3.45E1,9.975796E-1,1.3229572E5,4.8665586E4,-2.6998276E-2,-7.2277496E-3,1.3147585E-2,8.166875E2,-1.4552782E-2,-2.8983263E-2,3.6615783E-1,1.7738947E5,6.8544094E-3,3.2336883E-2,-1.4955317E-2,2.9252985E-2,6.656074E4,1.9972401E0,2.9542075E-2,5.7860464E-3,1.8447804E0,8.107358E4,-4.3844334E-3,-2.6173204E-2,9.320448E4,-2.8946005E-2,5.194357E1,6.5959625E0,-2.5625443E-2,-1.2425389E-2,3.159494E-2,-1.1181999E-2,-2.8545933E-2,-2.1157835E-2,-2.6173713E-2,-1.4569288E-2,-3.0622862E-2,-2.4385406E-2,-2.0172413E-2,-5.131015E-4,-2.7349077E-2,-4.9758703E-3,-3.1130569E-2,-1.37119815E-2,-3.5481395E-3,1.110787E-2,-2.1820717E-2,-1.0321963E-2,-1.0434385E-2,6.1918925E-3,1.6151112E-2,-1.0011595E-3,2.7168134E-2,1.1117705E-2,1.9120151E-2,3.023914E-2,1.6707522E-3,-1.9521521E-2,-4.836702E-3,7.7187167E-3,-2.2350024E-2,-1.3439466E-2,3.9578527E-3,-1.2045077E-2,-9.690104E-3,-2.5405733E-2],"split_indices":[3,2,8,2,8,8,2,8,0,8,5,3,0,2,3,8,5,5,0,3,0,2,3,3,0,3,0,1,0,3,0,9,5,3,9,2,5,1,3,3,0,4,0,3,1,9,5,3,0,0,0,2147483647,2147483647,1,9,1,0,4,1,5,1,0,0,4,5,0,0,9,0,3,4,0,0,0,0,0,0,0,0,2147483647,2147483647,0,0,0,0,0,0,0,0,2147483647,2147483647,0,0,0,0,0,0,2147483647,2147483647,0,0,0,0,0,0,0,0,0,0],"split_type":[0,0,0,0,0,0,0,0,0,0,0,0,0,0,0,0,0,0,0,0,0,0,0,0,0,0,0,0,0,0,0,0,0,0,0,0,0,0,0,0,0,0,0,0,0,0,0,0,0,0,0,0,0,0,0,0,0,0,0,0,0,0,0,0,0,0,0,0,0,0,0,0,0,0,0,0,0,0,0,0,0,0,0,0,0,0,0,0,0,0,0,0,0,0,0,0,0,0,0,0,0,0,0,0,0,0,0,0,0],"sum_hessian":[1.8536208E3,8.639007E2,9.8972015E2,4.4099448E2,4.2290622E2,6.622487E2,3.2747144E2,3.614101E2,7.95844E1,2.2436311E2,1.985431E2,4.294322E2,2.3281654E2,1.7448685E2,1.5298457E2,1.9980899E2,1.616011E2,2.093517E2,1.5011424E1,1.9542058E2,3.1225252E0,2.1848924E2,2.1094293E2,1.4077571E2,3.3711132E1,1.2823888E2,2.4745699E1,1.7531941E2,2.4489574E1,1.5841185E2,3.189253E0,1.18236885E2,9.111481E1,1.5177908E2,4.3641502E1,1.4048843E2,7.8000824E1,9.133978E1,1.1960315E2,1.2366885E2,1.7106863E1,5.7527752E1,7.071112E1,8.230884E1,9.301057E1,1.09515E2,4.8896854E1,1.1508801E2,3.1488717E0,3.4005377E0,8.771427E1,3.8255167E0,1.4795357E2,1.5354325E1,2.8287176E1,9.80838E1,4.2404625E1,2.4864735E1,5.3136086E1,2.5395193E1,6.594459E1,1.14423096E2,5.1800566E0,2.2661093E1,1.0100776E2,3.2218528E0,1.3885011E1,4.9287254E1,8.240497E0,3.4327614E1,3.6383507E1,5.014052E1,3.2168324E1,8.304196E0,8.4706375E1,6.950863E1,4.000637E1,1.5489488E1,3.3407368E1,4.3719727E1,7.1368286E1,8.281808E1,4.8961906E0,4.7762547E0,1.0578071E1,2.2724525E1,5.5626507E0,3.9033802E1,5.905E1,8.52438E0,1.6340355E1,1.8567493E1,3.4568592E1,1.4746755E1,1.0648438E1,5.3825104E1,1.2119486E1,8.955632E0,1.0546746E2,3.4474998E0,1.9213593E1,4.4410313E1,5.6597446E1,2.31161E1,2.6171154E1,2.0073189E1,1.4254424E1,2.296027E1,1.3423237E1],"tree_param":{"num_deleted":"8","num_feature":"10","num_nodes":"109","size_leaf_vector":"0"}},{"base_weights":[-9.576796E-3,-6.7425895E-1,6.765771E-1,-7.685425E-1,1.2469995E0,1.1499947E0,-3.306248E-1,-3.2447007E-1,-1.3838488E0,1.4580742E0,5.448366E-1,9.1058654E-1,1.5714694E0,-4.85382E-1,1.4286649E0,-5.790445E-1,1.5715349E0,-1.4972608E0,-1.2203877E0,-1.18266225E-1,1.0422156E0,4.0484846E-1,1.3060308E0,-6.1328452E-2,-1.1742005E0,1.5342606E0,5.554785E-1,-1.9092941E-1,-1.1064776E0,-1.0054835E0,-1.4170922E0,7.868175E-1,-3.358081E-1,1.4203813E0,9.3965197E-1,-2.817689E-1,1.5282222E0,-1.4394356E0,-8.1397665E-1,-4.84971E-1,1.5727645E0,-1.3006656E0,-7.708989E-1,-7.3414326E-1,-1.2321069E0,-1.462932E0,-6.486278E-1,5.973771E-1,1.5547584E0,-1.1467441E0,1.3917323E0,1.4370439E0,4.3098572E-1,2.8060216E-1,1.5561448E0,-4.5250345E-2,-1.1063951E0,-4.8649487E-1,-1.0793719E0,-1.0402807E0,1.3325221E-2,-1.3144187E0,-5.9789485E-1,7.0066296E-2,-8.821954E-1,-4.4629675E-1,-1.1103647E0,-1.326367E0,-4.3293995E-1,-1.4933597E0,-8.11381E-1,1.03493586E-1,8.390615E-1,-1.2648277E0,-7.006698E-2,6.256989E-1,1.522427E0,1.2287232E0,1.531834E0,-3.4164748E-1,1.2166443E0,-6.537926E-1,6.746387E-1,-2.463849E-1,-1.3372928E0,-7.946774E-1,6.783365E-1,-6.6599923E-1,-1.2424299E0],"categories":[],"categories_nodes":[],"categories_segments":[],"categories_sizes":[],"default_left":[true,true,true,true,true,true,true,true,true,false,true,true,false,true,true,true,false,false,true,false,false,true,true,true,true,true,true,true,true,true,true,true,true,true,true,true,false,false,true,true,false,true,true,true,true,true,false,true,false,true,true,true,false,true,false,true,true,true,true,false,false,true,true,false,false,false,false,false,false,true,true,false,false,false,false,true,true,true,true,false,false,false,false,false,false,false,false,true,true],"id":16,"left_children":[1,3,5,7,9,11,13,15,17,-1,19,21,-1,23,-1,27,-1,-1,29,-1,-1,31,33,35,37,-1,-1,39,41,43,45,47,49,51,53,55,-1,-1,57,59,-1,-1,63,65,67,-1,-1,71,-1,73,-1,-1,-1,79,-1,81,83,85,-1,-1,-1,-1,-1,-1,-1,-1,-1,-1,-1,-1,-1,-1,-1,-1,-1,-1,-1,-1,-1,-1,-1,-1,-1,-1,-1,-1,-1,-1,-1],"loss_changes":[8.3960376E2,1.7034384E2,4.3231137E2,2.4327301E2,5.7450485E0,6.0769653E1,7.976237E1,2.5160036E2,5.098572E0,0E0,4.013317E0,7.856842E1,0E0,7.811606E1,1.3361893E0,9.3671936E1,0E0,0E0,5.2726746E0,0E0,0E0,4.9772644E1,7.9454346E0,5.8855396E1,8.568344E0,0E0,0E0,1.3840762E2,1.1653122E1,3.9630814E0,1.8790131E0,1.5911148E1,8.5992455E1,2.1315002E0,